198 100
the -0.012597442 0.0012339577 -0.020722557 -0.024914265 -0.018702995 -0.009599246 -0.049717855 -0.024184812 0.013921592 0.010812677 -0.023559129 -0.030064201 -0.033760585 0.028200138 0.030163493 0.0030850172 0.049208786 -0.028068805 0.026944604 -0.04652059 -0.041206516 -0.00067769364 -0.04646821 -0.0051924475 -0.03227099 -0.027992297 -0.043060005 -0.04010116 0.043752912 0.044612754 0.01955605 -0.024073446 -0.007860959 -0.049584676 0.010388911 0.0014027469 -0.011393867 0.009247161 0.033648457 -0.043515217 0.02038293 -0.04195248 -0.04789864 0.014915016 0.04850657 0.042236153 0.03682233 -0.044734694 -0.0041503087 -0.022045398 -0.014279343 -0.013986647 0.007397115 -0.020987963 -0.025641764 0.010383584 0.042676184 0.031894114 -0.024253631 0.017001633 0.047073018 -0.020245684 -0.041876234 0.007115923 0.03890704 0.010308124 -0.04089781 0.005181752 0.0065584406 0.045159403 -0.0387676 -0.028256452 -0.018494725 0.021145608 0.032090735 0.005576253 0.025892619 0.03253222 -0.028794527 0.044405308 -0.047963142 0.0449381 0.018405173 -0.026830424 -0.029595459 0.032033052 -0.0131114125 -0.008626092 -0.0066377744 -0.03852854 0.019231666 -0.032273613 0.021156702 -0.0022487529 -0.03436588 -0.0333905 0.019007597 -0.015432455 0.016203452 -0.0076119527
of -0.015840627 0.029644538 -6.6470355e-05 0.017027568 0.023214612 0.023359481 -0.01702528 -0.012429833 -0.008457266 0.0009766929 0.001969792 0.035881642 -0.027719855 0.039125863 -0.037376262 0.030477058 0.0015359037 -0.04309851 0.014693093 0.020787273 0.013261188 -0.032489076 0.04855155 0.04247674 0.012230407 -0.016067646 0.031709563 0.045378897 0.045198027 0.018440057 -0.0009836666 -0.016547441 0.008618496 0.040413786 -0.03595444 -0.008235313 -0.014825057 -0.03226068 0.031346407 -0.0364313 -0.019048918 -0.034548603 0.04442085 0.042523477 -0.043908894 -0.01976266 -0.020983756 -0.03855728 -0.04757434 -0.03832252 -0.049324285 -0.04061999 -0.03391671 -0.044787552 0.007582642 0.023448553 -0.0025548935 -0.011256792 -0.039283395 0.041043248 -0.024512207 0.0035510547 0.0488779 -0.033749543 0.03647724 0.012554038 -0.0063142665 -0.010732651 -0.003459286 -0.03824408 0.034681883 -0.036868893 0.026421402 -0.018299151 0.0022493824 0.03580376 0.028016116 -0.035654593 -0.038649905 0.013443258 0.039836776 -0.010653734 -0.0149341 0.03911045 -0.004461717 -0.044610705 0.037879948 0.016114507 0.012622025 0.044338647 0.020402264 0.010850586 -0.03744639 0.023529101 0.0010839812 0.026517842 0.04721195 0.00357946 0.005503513 -0.010270573
influenza 0.0029882789 0.011619449 -0.041622065 -0.0240178 -0.04656514 -0.0072059855 0.023248319 -0.0138560645 0.02133191 0.0026883706 -0.025595248 -0.009691082 0.022521798 -0.049725235 -0.021326805 0.04261316 0.029895876 -0.00468383 -0.02968433 -0.011066686 -0.03917315 0.020559464 -0.02985437 -0.04557073 -0.012195408 -0.048737932 0.025656883 -0.026700377 0.010523509 0.03190798 -0.043917693 -0.034672476 0.016368818 -0.017197896 -0.027756024 0.046296988 -0.025209798 0.021088842 -0.041114964 -0.025378633 -0.0012749657 -0.025194967 0.020917002 -0.024261022 -0.049770307 0.01970518 0.029448118 -0.038870525 -0.04955497 -0.021062482 -0.008076083 0.021507408 -0.045929313 0.013191272 -0.0285231 0.03642763 0.009755123 0.031873915 0.007411979 -0.047186542 0.030132983 -0.028454138 0.00024014711 -0.014244664 0.020122197 -0.017290998 -0.02237078 -0.027815092 0.008389413 -0.037396442 -0.0067386404 0.012020767 0.017346155 0.01712567 0.020164195 0.021275464 0.042765033 0.039085295 0.01855323 -0.04251958 -0.013281118 -0.049564745 -0.033119906 -0.03617408 -0.01017151 -0.006206751 -0.019501496 -0.018545888 0.004826069 -0.006108772 0.036806036 -0.016276598 0.011993565 0.03910594 -0.044513285 -0.040138282 -0.015649654 -0.0065849423 -0.04423845 0.013334956
covid 0.03266536 -0.049524963 0.021816421 -0.0053966157 0.04628334 -0.040421378 -0.013192821 -0.014483392 -0.021390175 -0.040866233 0.0026545525 0.03278022 0.010337044 0.018299136 0.041620422 -0.04423648 -0.014489293 0.008834947 0.03940207 -0.02944082 0.028770518 0.0054994226 -0.023495043 0.029378045 -0.028817583 0.03253038 0.0041356087 0.0058006644 -0.049681794 -0.03852191 -0.002036918 0.04014338 0.012656059 -0.04283581 0.013291184 -0.047071245 0.037461255 0.032484535 0.00043701008 0.025825623 0.041717257 -0.04516032 0.03758887 0.013838377 0.018070769 -0.04869466 -0.023726536 -0.04456657 0.020801459 0.04736184 -0.020948756 0.047997106 -0.015158225 -0.009556629 -0.03661541 0.049846698 0.04788171 -0.0409408 -0.0026820414 0.0035539046 0.04765253 0.03725959 -0.024227226 -0.0035211071 0.022483554 0.037207793 -0.044305086 -0.03322356 -0.036937106 0.04290105 0.023888182 0.021218788 -0.04795877 -0.01805178 0.022332761 0.014571395 -0.04435725 -0.036503673 0.04800011 -0.016759288 -0.0013512745 -0.0069501176 -0.001084052 0.032311726 0.0065634735 -0.016515277 0.02025691 -0.034400262 -0.013704229 -0.025485301 0.03739549 0.023632038 -0.03605827 -0.029018724 0.024703693 0.015098643 0.009928606 -0.023131384 0.024555754 -0.027530624
19 0.023419593 -0.028751075 0.033827808 -0.0026120432 0.021918025 -0.01346283 0.0043883547 -0.015283633 -0.014970791 -0.031470228 -0.009748351 0.028149892 0.009117819 0.044591393 0.029863302 0.041385625 0.028945532 0.045467425 0.0116009 -0.011063289 0.0005745292 0.004660785 -0.0062195286 -0.01693467 -0.023635758 0.0014081486 -0.014190316 0.031913307 -0.049335685 0.016123448 0.032489482 0.026144374 -0.036563683 0.0133656 -0.004578255 -0.027153814 0.039839875 0.014880303 0.03981724 -0.010454655 -0.038033128 0.0037783273 0.023792949 0.025963414 0.012771163 0.037558485 -0.046802532 0.0015145428 -0.045170367 0.018517923 0.021308292 -0.005049981 0.004199911 0.016029391 -0.048725512 -0.029469574 0.04841355 -0.005276799 -0.03209095 0.04267204 -0.03220673 -0.007552337 -0.04587059 0.0020912401 0.024905968 0.044613507 -0.026375307 -0.025392247 0.03958494 0.032358836 0.01593889 -0.02947147 -0.029385984 0.009409212 0.04181436 0.026200902 0.017685954 -0.018804824 -0.003712047 0.046039138 -0.008630075 -0.017850924 0.00023449585 0.020086598 0.045308698 -0.0059068203 0.010224499 -0.028972376 0.024130259 0.03046297 -0.030878484 -0.04913794 -0.04490459 0.0029724017 0.045239452 0.008240104 -0.026812077 -0.035652973 -0.04453802 -0.03305161
virus 0.031347994 0.03014994 0.008322407 -0.03232088 -0.035104156 0.011731446 -0.04063455 -0.0071769953 0.034685258 0.048505235 0.013167236 0.044636894 -0.03226441 -0.045760598 -0.0382496 -0.048663247 -0.023005629 -0.041142892 0.03969134 -0.02551793 -0.006466616 -0.023523355 0.04438397 0.017845366 -0.036498725 0.029519428 -0.04079064 0.022471022 -0.03761815 -0.0145949125 -0.008014895 -0.010476194 -0.04094138 -0.04663825 0.0002957806 0.007817805 -0.017111339 -0.021992672 0.013090719 -0.046562638 0.011563957 0.037794504 -0.010767769 0.0035166852 -0.03177418 -0.041702114 -0.02579614 -0.035858072 -0.0241287 0.0146684535 -0.048125636 0.00903777 -0.045146525 -0.043451965 0.043941204 -0.04654416 -0.0059777983 0.0015934706 0.035110984 -0.02981403 0.028744403 0.02152944 0.015062157 0.01180942 0.03893229 0.005600393 0.011185277 0.019969467 -0.040516615 -0.01438383 0.03890804 0.016132738 0.040772583 0.044745777 0.048514094 -0.020741666 -0.0064352043 -0.033934094 -0.02547331 -0.0064233653 0.026322093 0.04143909 -0.0054674633 0.026280273 -0.0011410341 0.0005809441 0.039845172 -0.03578844 0.017203342 0.033747856 -0.04637728 0.019961845 0.02873427 0.008965779 -0.04747465 0.01475079 0.0080424175 0.027628448 -0.023706973 0.04315937
for 0.04191791 0.00861739 4.2866915e-05 -0.01789857 0.02024572 0.049242113 0.03644811 0.0072621703 0.010695398 0.011704575 0.025317978 -0.0036216266 -0.037341405 0.037372556 0.0057282224 -0.0065249316 -0.0056399703 -0.028559793 0.01068772 0.0014641061 -0.004275333 0.016038481 -0.047712445 0.034343947 0.038854983 0.0039966702 -0.04444238 -0.016454626 0.04266317 -0.021548344 0.039750863 -0.025158703 -0.04727099 -0.03344387 0.044709075 0.044188645 -0.03532369 -0.04545777 0.016522434 0.014633898 0.0450341 0.032549705 -0.009933401 -0.025802374 0.044097636 -0.034292318 0.031833436 0.03428152 0.049285162 0.04328808 -0.010200441 -0.046216823 0.02137642 0.016844723 0.039422188 -0.007904746 0.0424626 0.005210139 0.047420386 -0.010134567 0.037954036 0.03793211 0.0016060695 0.024657737 -0.028639078 -0.034194697 0.004678428 0.012131728 -0.023630941 -0.029261077 -0.00644188 -0.000826966 -0.03150262 -0.044338502 0.037620615 0.013072658 -0.038138162 0.03146186 0.036992934 0.040988896 -0.020827627 -0.034064986 0.0038717873 -0.014926314 0.047661196 0.02544285 0.0027036555 -0.03549745 0.045802917 0.01429918 -0.018063225 0.03570086 -0.00010422617 -0.04210924 -0.015551675 -0.0059106126 0.035695102 -0.042509057 0.013057474 -0.016808547
transmission 0.0064028017 0.031537745 -0.03693552 -0.0027759448 -0.021857953 0.012234926 -0.043762792 -0.048180282 -0.014175009 -0.04983598 0.023034263 0.008179951 0.041849438 -0.021032143 0.03543916 -0.04571724 0.039568555 -0.025212264 0.030715015 0.029730055 -0.010857187 -0.029840006 -0.005510509 -0.049220692 -0.03838422 -0.003973067 -0.028414834 -0.030929077 0.02390695 0.008365892 -0.011596419 -0.012601733 0.038963687 -0.008766305 -0.028091049 -0.046830203 0.0017759204 -0.0013425723 0.02014533 -0.011306763 -0.0134555325 -0.0046048537 0.020720076 -0.047732532 -0.033436954 -0.0015228279 0.041460995 -0.040679716 -0.011324681 0.01799858 -0.026557911 0.042818632 0.038641725 -0.047298383 -0.02131449 -0.044593778 0.0003369078 -0.022289658 0.02433497 0.006600965 0.020416271 -0.010459043 0.022868682 0.025241505 -0.025095452 -0.024531735 0.00032346323 0.03551599 -0.02311039 -0.020862138 -0.028106546 0.022404838 0.039006796 0.048341963 0.009213291 -0.019294238 0.02118272 -0.030023003 -0.016502153 0.043627765 -0.009303819 -0.037013423 -0.048034597 0.002745401 0.018317435 0.030951608 0.0058585405 0.025911275 -1.8488616e-05 -0.019540656 0.023588333 -0.023430014 0.049849335 0.039721075 -0.030108202 -0.036287725 -0.032278825 0.033365358 -0.016851068 -0.038694132
is 0.0028043166 -0.02703159 -0.039045524 0.04758055 0.047433984 -0.002693735 0.015754867 0.0188911 -0.028847158 0.04027495 -0.02885902 0.004021775 -0.029604495 -0.043105412 -0.035379864 0.02920774 -0.033533253 -0.03414055 0.00970564 0.018116776 -0.048759174 0.0008112192 -0.025122786 -0.017412998 -0.03279792 -0.03650471 0.0053750984 -0.0007405393 -0.04474914 -0.004052855 0.044637803 0.03186954 0.011739124 0.0129894875 -0.041177012 0.039052073 0.006216623 -0.005622994 -0.011042345 -0.002467014 -0.004208576 -0.01606362 0.01376294 0.018243339 0.039035525 0.0038222559 -0.04861187 0.049115192 0.040031705 -0.009944774 -0.006393753 -0.040903617 0.009044219 0.020723525 -0.020585692 -0.00097154453 0.017630484 -0.040671684 0.042175006 -0.03857603 0.018360209 0.037100796 -0.016962849 -0.019743372 0.0050071254 0.049171377 0.036670003 0.01809043 0.006988179 -0.002092041 0.04596522 0.014765825 0.021753047 0.017277721 0.021112476 0.042566393 -0.0057042725 0.003987789 0.04403342 -0.0072131157 0.020601515 -0.04352505 -0.016601302 -0.02582388 0.0021967664 0.043149922 -0.039219797 0.008423496 0.043437157 -0.02605245 0.026435915 -0.017972518 0.015216384 -0.0063352585 -0.049633015 -0.02772367 0.007910538 -0.034493674 0.031350885 0.01900724
to -0.004031431 0.028152179 0.027016845 -0.0042084083 -0.021914601 0.03585888 0.026065279 0.023686517 0.00013430044 -0.00813638 0.0022308007 0.024906304 -0.030722713 -0.011686873 -0.008950818 -0.022067165 0.013819341 -0.04634118 -0.018366277 0.017555807 0.0098809 -0.022870803 -0.0067842714 -0.019380355 -0.04814787 0.026364986 0.04014534 -0.012602054 0.014133941 0.007905684 0.031889413 0.018382613 -0.018100668 -0.007913649 0.025553633 0.017404225 -0.028737092 0.039101426 0.04741652 0.00045279413 -0.023032725 -0.04479294 -0.024993157 -0.025145436 0.030446533 -0.04801196 0.03363112 -0.026712967 -0.044015147 0.018352736 0.03394549 2.834946e-05 0.004413616 -0.003139209 -0.03467356 0.022804681 -0.013434481 0.009345315 -0.030059159 -0.04523288 0.012024235 -0.017363511 -0.04479475 -0.021766901 0.029909227 0.024702776 -0.01130867 -0.03223573 -0.01595347 -0.026028467 0.04279572 0.0117203 -0.032502472 0.014254894 0.046293642 -0.04117191 0.03328732 -0.049895015 0.04593343 0.01365621 -0.008173466 -0.03603209 -0.04504439 -0.029515719 0.03603593 0.043444123 0.028941695 -0.0059267655 -0.0056307428 0.01633748 -0.021356488 0.036188733 0.045002487 0.045208666 0.042698506 0.046457324 0.0025864467 -0.026240503 0.00946648 0.015742335
a 0.030285243 -0.024222612 -0.040857278 -0.04641333 -0.014947675 0.048122574 0.01732986 0.049471464 0.004055012 0.016862582 0.036065627 0.028499115 -0.03877313 -0.01866474 -0.01559297 -0.02769624 -0.034429632 -0.025846183 0.045660745 -0.023120333 -0.013424277 -0.011429418 -0.033570766 0.028265033 -0.037522934 -0.015569128 0.03001051 0.044935573 0.023992624 -0.04438634 -0.0065281987 -0.035776567 -0.025359083 -0.007827222 -0.003313683 -0.015024386 0.00891329 -0.018491268 0.009863041 -0.03931992 0.04424602 -0.0128033385 0.03755856 0.021518257 0.017556552 -0.018561922 -0.021944035 -0.045461453 -0.03895856 -0.027336765 0.017485108 0.015338134 -0.03957063 0.029473472 -0.046473205 0.049353372 0.046765435 -0.0055485256 -0.02667507 -0.015933968 -0.04174794 0.011607338 0.008550681 -0.039990664 0.04339632 0.036587324 0.011142254 0.01819029 0.04024944 -0.048077215 0.04906911 -0.040678013 0.037217382 0.021484505 0.011996448 -0.013330363 0.018743787 -0.01931106 0.03788812 -0.022063553 -0.04406358 0.033360492 0.0152899735 0.005377244 -0.02695167 0.013780866 -0.02654599 -0.0019663684 0.021186892 -0.04088918 -0.0162565 0.014157776 0.0396463 0.01843151 -0.00062979385 0.0314592 -0.046712376 -0.03936882 -0.014481079 0.024248984
and 0.034115884 0.03592093 0.04390223 -0.024532532 -0.002411127 0.02612665 0.028587494 -0.006793607 0.032431092 -0.0347126 -0.029445767 0.00050358847 -0.0047687404 -0.025128497 0.022891808 0.04532807 0.025787804 0.038580406 0.046227563 -0.025458276 -0.02884301 0.04028343 -0.049945068 -0.042289533 0.016088616 -0.021340573 0.03783853 0.027404595 0.015141431 -0.049826182 0.030997906 0.042476717 0.02389336 0.037447933 -0.027914548 -0.04918884 0.044561293 -0.006151151 -0.0072085485 0.0015055649 -0.026928043 0.036624048 0.04202226 -0.0018589981 -0.023849154 0.025797833 0.032789577 -0.017630912 0.02392931 -0.007444393 -0.002790548 0.039794836 0.040311757 -0.009712279 -0.034259308 -0.038794804 0.021487426 -0.0005310178 0.030672137 -0.0111346245 0.042486165 0.020176899 0.01929814 0.047234785 0.005296111 -0.021077229 -0.035766922 -0.020912742 -0.023569917 -0.026458954 -0.032132983 0.022557627 -0.0032776818 -0.033380054 -0.04111495 -0.025193905 0.04837725 0.04176153 -0.029223466 0.027005564 0.040198732 0.0008335002 -0.038660824 -0.011126839 -0.01269909 0.010431327 0.038592983 -0.010708105 -0.042610824 -0.03959514 0.04398707 0.015405897 -0.00956998 -0.02531681 -0.027480591 0.02746674 0.006141387 0.015619073 -0.03268943 -0.049159348
between -0.03553661 -0.0026655681 0.019446995 0.024869274 -0.0017833225 0.016251806 -0.0038672797 0.020328466 -0.020239068 0.028745506 0.010800861 -0.0095971 -0.036534153 -0.030586947 -0.023331417 -0.033405982 -0.020689774 -0.017552745 0.035365526 -0.042027988 -0.03300865 0.031290594 -0.018674172 0.047328446 -0.029689789 -0.012208749 -0.030129194 0.04695386 -0.049787033 0.021741215 -0.0107169375 -0.00077962875 -0.025108015 -0.022926008 -0.029854788 0.01792008 -0.038655877 0.03444505 -0.020788444 -0.014361106 -0.011554718 0.034875426 0.020343069 -0.045279752 0.04923116 -0.032691322 -0.0065192096 0.029323723 -0.016853202 0.017041173 0.012424864 -0.016859602 -0.0028804317 -0.004709076 -0.010214053 0.017335463 -0.038179375 -0.01852534 -0.021340167 -0.021527363 0.047434118 -0.018692493 -0.03567071 -0.0058031306 0.033109892 -0.00020159408 0.045067165 -0.045364656 -0.0039682277 0.041911673 0.024012972 -0.0062433854 -0.049899913 0.014755342 -0.03371676 -0.034020532 0.007965326 0.0056591034 0.033007506 0.024351422 -0.034823895 -0.01565542 -0.025769567 0.030547705 -0.043976214 0.029647026 -0.01693077 -0.036755633 0.004512988 5.267933e-05 -0.040921785 0.015000526 0.03630567 0.036432598 -0.038739096 0.047598075 -0.0073389523 -0.04243627 0.030849505 -0.04568323
time -0.033783235 0.009974338 0.024776306 0.024482455 0.044810716 -0.015962828 -0.042809118 0.026685465 -0.031249333 0.0047401898 0.008731175 -0.01570519 0.013071705 0.02594575 0.017310265 -0.031349503 -0.001799535 0.043863405 -0.013560783 -0.028869903 0.0101651065 -0.017208911 -0.016413532 -0.006135963 -0.022259593 -0.010710429 0.020491932 0.031451676 0.03593084 -0.008565236 -0.03953805 -0.01610265 0.03217492 -0.00502906 0.023763824 0.020551432 0.039012883 0.049433712 0.03294896 -0.047301184 -0.03231237 -0.021858608 0.030742671 -0.036073815 0.007298909 0.0038195364 0.0031660683 0.033254 -0.008047678 0.043436352 -0.0040170327 -0.048309196 0.044726167 0.004250683 0.0023306832 -0.02133814 -0.03386377 0.029173646 0.029055346 -0.04105817 -0.03717252 0.013500657 -0.028750086 0.012750629 -0.035325933 0.009732209 -0.047645308 0.046626676 -0.009895574 0.040651474 -0.0223459 0.026744995 0.0029946454 0.041173074 -0.0074021593 -0.03975723 -0.010371387 0.035690513 -0.01172043 -0.024374915 -0.036535073 0.024916556 0.011183966 -0.020370139 -0.014538158 -0.018379293 -0.03588853 -0.028800309 -0.0464569 0.031848524 -0.00091478974 -0.035549473 -0.031719163 0.03454553 0.034418892 0.043327276 -0.042835843 -0.0015606508 0.01750816 -0.00048402697
serial -0.010087691 0.03337654 0.045155715 0.027160872 -0.0053578727 -0.026509572 -0.013345968 -0.0017161854 -0.01470542 -0.0018647201 -0.0024838448 -0.03293947 -0.003965009 -0.018649437 -0.0056391247 -0.025255729 -0.031843677 -0.0404943 0.0030750036 0.030775223 -0.035674404 -0.043177046 0.0176862 0.045152392 -0.025464535 -0.024901165 0.028106201 -0.0021131411 -0.012259401 0.022608187 0.018121075 -0.023036897 -0.048583128 0.015174914 0.030480433 0.049275663 0.026097227 0.026395295 0.03159492 -0.015444469 -0.04257381 -0.0015408769 0.009372532 0.008849464 0.049994636 0.037987474 0.027679037 -0.03832723 0.039887514 -0.02388829 -0.009233963 -0.03581232 -0.029675389 -0.02473904 0.048669647 -0.0064067245 0.039761815 -0.034127034 0.0046418533 -0.033895336 0.017166506 -0.020078255 -0.0067523494 0.016958047 0.019752134 0.0120610595 -0.034159005 0.005933892 -0.0498729 -0.046672355 0.00096123293 0.040832866 -0.009857513 0.0033762231 0.04983386 0.0283867 0.001975119 -0.022138644 0.0023023002 -0.032880545 -0.0036574379 0.018554632 0.048139203 -0.014159597 0.03475045 -0.005310416 0.04949263 0.0072694533 0.03187153 0.026586596 -0.01158575 -0.027069056 -0.031473566 -0.03302424 0.028303515 -0.022954905 0.022360895 -0.0302724 -0.00015162304 -0.007168699
interval -0.04161962 -0.027876854 0.023937587 -0.013921618 0.04257134 0.014771674 0.04607219 0.044097137 -0.0060852543 0.047970165 -0.026326155 -0.046795726 0.033377293 0.04589304 0.042292487 -0.042650618 0.035932336 -0.0011199825 -0.026699973 0.041718934 -0.030031586 0.044949744 -0.042185497 0.0058855414 -0.034019995 -0.019800413 -0.046350386 0.014026079 -0.048617017 -0.040806867 0.00057103485 0.0067506656 0.012209617 0.0115304105 0.0061173923 0.038898457 0.014197174 0.008388281 0.029248405 -0.034053266 0.03470743 0.01251841 -0.029095924 0.024604175 -0.002408564 -0.029529465 0.018604446 0.043255378 0.045982067 -0.028293693 0.026908647 -0.029137576 0.010195456 -0.028212143 -0.026034176 0.021578562 -0.01575173 -0.016065516 -0.031089127 -0.022107327 -0.010320641 0.0064660423 0.008205343 -0.015361033 -0.034125052 -0.025271846 -0.021564817 -0.025151432 -0.0146696195 -0.038247824 -0.04031632 0.016706597 -0.018215775 0.030948948 -0.012593854 -0.026676929 -0.047703233 -0.003852237 0.034176853 -0.034132995 0.038475122 0.0028182752 0.031259384 0.03291044 0.010326482 0.035850633 0.03754903 0.012837116 -0.041355334 -0.010312546 0.0338084 -0.048095394 -0.0026401281 0.014694724 -0.019615067 -0.013079606 0.03485438 0.0015577674 -0.028645707 -0.042281747
than 0.042721737 -0.017152548 -0.026043607 0.01209699 0.040423106 0.028019998 -0.013905536 -0.030563785 -0.032808006 -0.000498794 0.04445238 -0.008033682 -0.037292637 0.03557222 0.021439042 0.0011288747 0.016885329 -0.007378243 -0.007049989 0.03829607 0.024070028 0.020917524 -0.030454386 0.043206606 0.021349642 -0.019475007 -0.020427048 -0.041920196 -0.024156427 -0.017421197 -0.019322766 0.047013592 -0.002188336 -0.035173308 0.0062755123 0.041188788 -0.037076246 -0.0065226555 0.022311475 -0.0004557371 -0.022010421 0.038814213 0.042739067 0.0038761124 -0.02213086 -0.041188538 -0.040846992 0.005134333 -0.018171228 0.043611895 0.021528032 0.031562377 0.0070036873 0.04020525 0.015580047 -0.04793904 0.034396324 -0.016795147 -0.00012146309 -0.04352292 -0.016635336 -0.004675638 -0.031947076 -0.0466861 0.00946293 -0.018819762 -0.039854158 0.0235616 -0.03187851 0.047294203 0.046550836 -0.00459671 -0.027818872 0.019699406 -0.028877854 -0.019677116 0.035861444 0.01812667 -0.0087823495 -0.021716988 -0.049438525 -0.030953014 -0.032012165 -0.017116822 0.013789501 0.0486213 0.038857345 0.0244365 0.027733278 -0.007358514 0.03933983 -0.011358283 -0.014891528 -0.014721595 0.030565355 -0.020958949 0.03759909 0.032797698 0.022698212 0.035726402
be -0.0440285 -0.010677028 0.009311568 0.022103813 0.030983616 -0.019255234 0.03449324 -0.023220027 0.04458822 0.029242638 0.04704726 -0.043841507 0.018801775 -0.035704993 -0.0050109252 0.0028688535 0.0195552 0.018991541 0.036054898 -0.0031288862 0.0049468763 -0.025744272 -0.006778896 0.009791672 -0.046113756 0.0021456592 -0.017208017 -0.010662138 0.04261079 -0.042143047 -0.02305751 -0.0135443695 0.004626073 -0.0068987235 -0.012443483 -0.015074443 -0.03218838 0.0052272454 0.021013472 0.02669615 0.01293062 0.0017691739 0.010235809 0.02527446 0.046904508 0.022930596 0.03671864 0.015596215 0.034930144 0.040256146 0.010646485 -0.026658619 -0.04613148 -0.016548775 -0.043488275 0.025692847 -0.0013939366 0.049847174 -0.045391228 -0.005263198 0.027720083 -0.03352102 0.018632602 -0.025152707 -0.040647805 -0.0048111305 0.042723242 -0.02356336 0.0031456836 -0.034330428 -0.010773789 0.027357642 0.047180686 0.041409377 0.03322125 -0.038899623 0.0023906007 0.012636434 0.026435409 -0.042534925 0.0015520453 -0.018635225 -0.041632522 0.006392695 -0.0021696575 -0.025508417 0.020692263 0.031974424 0.0038804524 0.025184657 0.03940929 0.042980265 0.00028137118 -0.011430334 0.0027342439 0.00710056 0.034770098 0.011716984 0.045805287 -0.0052170977
5 -0.015127897 0.03268412 0.0046624057 -0.047370136 -0.035318732 0.004641019 0.0460417 0.009681929 0.019291844 0.009815156 0.03779826 -0.01176114 0.04104111 0.043824498 0.046217907 0.044287708 0.020382766 0.032098662 0.011960052 -0.016857434 0.03234105 0.03995795 -0.024309576 -0.034690857 0.029842522 -0.0384426 0.030837957 -0.048579752 -0.033127464 0.006455183 -0.018602528 0.019108687 0.048295084 0.0014995337 -0.031158483 -0.049022544 0.012576882 -0.031424392 0.0348362 0.031162884 0.016349804 0.047965217 -0.03639995 -0.046670247 0.0034333356 -0.010343753 0.030755404 -0.030472232 -0.017507493 -0.027347684 0.02308691 -0.0012571812 0.041806724 -0.024830652 0.031537663 0.033381525 0.04800233 0.027312089 0.044412527 -0.032791544 -0.04724895 0.045228843 0.031837653 0.009049974 -0.039399423 -0.03967359 -0.025265098 -0.041823767 0.036630224 -0.033562623 0.047010828 0.0013074167 0.015253533 0.0030385628 -0.040165663 -0.024801528 0.032327544 -0.045561444 -0.014879324 -0.030540515 -0.04817598 0.008759845 0.011258341 0.04928123 -0.007110916 0.046595816 -0.03474641 0.015585449 0.028452005 -0.00022978708 0.016689267 0.022641946 0.02023736 0.04582509 -0.015819646 0.0046777613 0.015364397 -0.044811178 0.032316986 -0.041145325
days 0.0047807805 -0.03240081 0.007313274 -0.020111239 -0.023246063 0.039828006 -0.010947704 -0.011200178 0.020845506 -0.025280332 -0.014694393 -0.01607604 0.048137393 -0.012389839 0.008712232 0.039592717 0.03973173 -0.025982846 0.048873495 0.02293891 0.0016638748 -0.010798059 -0.033358134 0.015543465 0.0068458803 0.044913266 0.04386573 -0.015215386 -0.0010830872 0.033827413 0.018657174 -0.036104895 0.04599328 0.010661207 0.034342777 0.04275078 -0.038803387 -0.029225672 -0.0037902817 0.0072674155 -0.040952064 -0.013408028 -0.039402533 0.0026792511 -0.011918463 0.011551999 -0.019966496 -0.04174005 0.032533232 -0.04760095 0.02996583 0.030476298 0.00084964186 -0.010188125 0.044818606 -0.009344302 -0.0048553944 0.04943612 -0.030292166 -0.0019285195 0.018626098 0.029534284 -0.0023789406 -0.008954905 -0.035096873 -0.016734265 0.029687773 0.013317142 0.039340865 -0.02792008 0.00033359602 0.008513294 -0.049289357 0.004679989 0.020860385 -0.041814424 -0.04296006 0.025000062 0.04861844 0.023988377 0.022162009 -0.01373769 0.0202039 0.04103105 0.012528095 -0.030612493 -0.022321213 -0.029987156 0.03747532 0.036304083 0.003257893 -0.0004312992 0.045421097 -0.023904681 -0.046774067 -0.008960832 0.010436572 -0.021838665 0.020759393 -0.01689409
– -0.028464723 0.013047997 0.024529312 -0.008641899 -0.048219707 0.017738607 0.005313862 -0.046398547 -0.005387567 -0.03339219 -0.016682066 0.011478342 0.0057772025 -0.043120205 0.03207377 -0.00033620745 -0.031727184 0.04790255 -0.030273033 0.03190725 0.027739141 0.005530916 -0.022684408 -0.04130597 0.027230289 -0.0008591041 0.024976585 -0.041956436 0.047248248 -0.017033637 0.045409586 0.01975118 -0.03521943 -0.030854201 0.020479772 0.0015476458 0.02201071 -0.0387401 0.036546674 -0.03525733 0.038316738 0.012743089 -0.00093389675 -0.042075407 -0.0252972 -0.027058685 -0.016433798 0.0049387813 0.03143133 0.014101613 0.032591533 0.047244657 0.020084549 0.020403001 -0.026106512 -0.030318512 0.00949068 0.035638843 -0.019401705 0.009900678 0.017492022 0.046375584 -0.01466427 0.028768446 0.04262734 -0.039355863 0.01004678 -0.034022108 0.030185554 0.020501021 0.024404656 0.012405038 0.04913011 0.018395934 -0.0018230304 -0.03367462 0.04568175 0.032384846 0.004783977 0.044759225 -0.048508085 0.01175531 -0.039618753 0.042226423 0.01042106 0.03326804 0.044219527 0.025354896 -0.03220557 -0.0029745214 -0.028224993 0.027931843 0.04634199 0.020500388 0.0071477666 -0.00816939 0.026146386 0.017189894 -0.020278156 0.032462705
are -0.035409283 0.011293612 0.018999968 0.007896066 0.049765896 -0.01210662 -0.010594942 -0.045180798 -0.011454903 0.04135703 -0.01323067 0.026587043 -0.01846663 0.043504763 -0.01540488 0.007086586 0.039118078 -0.0122663155 -0.029748881 0.01104169 0.04410981 -0.026165474 -0.028064406 0.028902303 -0.026345981 -0.005274318 0.008586217 0.009768985 0.038321737 0.03158157 0.009843804 -0.021885468 0.04475161 -0.02946887 -0.028805435 0.026343714 -0.040700853 -0.047072697 -0.0004928112 0.024026144 0.028521564 -0.026542962 0.01602156 0.04915801 -0.00371778 -0.03731097 0.035235073 0.046757128 0.03746767 0.00028531626 -0.0004376769 0.049904022 -0.035077047 -0.032363676 0.025366869 0.04184362 0.02517433 0.00013977289 -0.035942197 0.04736996 -0.021035433 -0.01471623 -0.02600292 -0.035619378 0.0017043129 0.008756507 -0.021165837 -0.03160112 0.043122444 -0.02042147 -0.047310818 0.002760481 -0.03073566 -0.017026078 -0.025083983 -0.026401687 -0.04889481 0.012692999 -0.017811883 -0.0135698095 -0.032408558 0.046842042 0.0013424158 0.022873376 0.04378624 -0.042225648 0.008018505 -0.048651695 -0.037418235 0.016513515 0.030481342 -0.044606354 -0.013821445 0.019185793 -0.03751557 -0.037034474 -0.027348613 -0.011844315 -0.032367945 -0.00816996
viruses 0.03714622 0.027246427 0.033200655 0.03747556 -0.040673874 -0.038933087 -0.01651609 -0.023906423 0.01704998 0.008381426 0.01405846 -0.0179011 -0.0056929216 -0.01840192 -0.014228679 -0.012101673 -0.022912538 -0.021309828 -0.04837748 0.01074376 0.038177934 0.02936944 -0.012331426 0.038797285 -0.033344783 0.0353078 0.030001674 -0.045929074 -0.02668463 -0.023717904 -0.004814755 0.02369504 -0.04939449 0.010597847 -0.017388225 -0.049844455 0.024571385 -0.04136926 -0.006952882 -0.015520252 0.011610042 -0.0076906905 0.046968523 -0.048374593 0.022489097 -0.04281534 -0.049353566 -0.024115598 -0.04566052 0.023244906 -2.2102147e-05 -0.026095152 -0.032445002 -0.03547145 0.025237564 0.024353359 0.03905486 -0.0072981007 0.046953205 0.018190805 0.006681122 -0.011665892 -0.033468805 0.020388369 -0.0064849854 0.04666586 -0.02810284 -0.0023416504 0.035316717 -0.008756399 -0.026470482 0.04793561 -0.04720625 0.04497901 -0.022453142 0.03245468 -0.049153604 0.031697582 -0.030842198 0.041594993 0.034922842 0.045384612 0.0061820745 0.010374285 -0.005585097 -0.012989558 -0.017104112 -0.01943983 -0.017576873 -0.008393586 -0.0376606 0.011596836 -0.04350859 -0.038328804 -0.039384354 0.020333413 0.043896083 -0.022051156 -0.04659487 0.0058363564
shorter -0.04949781 0.03163257 0.010921013 0.020063963 -0.0032378435 -0.02303499 -0.035656285 0.027871404 -0.008214653 -0.00036603212 -0.011018276 0.004834842 0.031602416 0.01694398 -0.030055821 -0.041068174 0.026163127 -0.019950211 0.037156116 0.012685802 -0.0014646873 -0.01146891 -0.0008732192 -0.036896776 -0.027412249 0.02870066 0.043915477 -0.024909317 0.039382886 -0.029850816 0.012726154 -0.045250513 0.019842114 0.026590157 -0.025196468 -0.022097016 -0.038211513 0.023296628 0.044585947 -0.01894257 0.048273113 -0.02331363 0.02845918 -0.013116062 -0.02719221 -0.0089172125 0.04599471 0.04358227 -0.024844408 0.035521496 -0.049587037 -0.038438 0.0008022301 -0.010058772 0.0040700063 -0.0062265173 0.022813644 -0.04544561 -0.02235353 -0.034812678 -0.037689425 0.008321524 0.042545203 0.046905484 0.018075954 0.031116832 0.011470627 -0.013522685 -0.009780444 0.035780217 0.021412227 0.013965551 0.027788077 -0.00022558123 -0.015358724 0.0037506707 0.0077038296 0.03283358 0.03988612 0.03942832 0.011127364 -0.004032336 -0.027146136 -0.009733953 0.008874439 -0.047406293 -0.03775091 0.0065322407 -0.039096285 -0.022573639 0.01949371 -0.011065852 -0.013453949 0.04294349 -0.0019936934 -0.030691803 0.0021074787 -0.027798915 0.022249114 -0.038208485
from -0.033729874 -0.018130612 -0.04363153 0.018091884 0.0283813 0.00032383204 -0.036248125 0.030824903 -0.008626424 0.00977385 0.042271387 0.031033728 0.04162271 0.0075529926 -0.024273396 -0.033888377 -0.017813884 0.010905065 -0.04562944 -0.026174044 0.019404318 -0.04024005 0.025626305 0.047131035 0.015148845 -0.033597134 0.035048787 0.0027151927 -0.0070059896 -0.023856675 0.028101537 -0.043669786 0.025612842 0.028415274 0.01586363 0.012601364 -0.017131351 -0.04058367 -0.020697726 0.01605365 -0.046036255 -0.036986362 0.01189084 -0.031031324 -0.047974765 0.016605023 0.04506317 -0.041701008 -0.030999064 -0.037151527 0.045134578 0.036723364 0.033078227 0.00546645 0.043626618 -0.022724558 -0.005761314 0.0060367696 0.015327644 -0.04124876 -0.03862053 -0.049705185 0.027115654 0.0022633076 -0.043199528 0.013315212 -0.0044855103 -0.027196681 -0.042952895 0.032659356 0.008538675 -0.017895997 -0.01483966 0.016641151 0.017226014 -0.039967895 0.019452956 0.014082167 0.026750255 -0.04479153 0.0067289956 0.0152339 -0.016998567 -0.007243026 -0.04351547 0.04813135 -0.016737688 -0.0054884553 -0.02109064 0.031153236 0.030181456 -0.0047446266 -0.0041175485 -0.01471851 0.03604467 -0.011935353 0.043474782 -0.01549083 -0.013908077 -0.0035634153
appearance -0.039759327 -0.0065626986 0.040808644 -0.00583788 -0.033440758 0.0018663406 0.024559762 0.024464373 0.04019438 0.0029854402 0.019576896 -0.014990784 -0.021982038 -0.0075598247 0.0057196245 -0.024857605 0.036847774 -0.003344871 -0.048749067 0.04542092 0.042361032 -0.02620448 -0.040125083 -0.0229128 -0.026171505 -0.01040573 -0.02159983 -0.030461002 -0.016576745 0.011538662 0.0393147 0.02402145 0.033847045 -0.024192095 -0.046071805 0.00061642006 -0.04497179 0.02630825 -0.036827337 0.039089527 -0.032142363 0.036802124 0.033685397 -0.04421041 0.029003132 0.030736003 0.041053187 0.036581267 0.04818591 -0.0118820295 0.035041187 -0.01666373 0.03847598 0.037997376 0.022726033 -0.01996882 -0.027800227 0.030407999 -0.02454393 0.019468937 -0.027187718 -6.5006316e-05 0.026249457 -0.04459251 0.03137425 -0.025670314 -0.033181682 -0.010209143 0.0020502694 -0.035256006 0.0017897971 0.009953618 -0.014862418 -0.004193984 0.015748028 0.03755958 -0.027782489 0.015301194 0.047542658 -0.0463652 0.003109835 0.04986432 -0.042242467 -0.029732764 0.042355243 0.037704233 -0.032775212 0.043335367 -0.031531774 -0.009354733 0.029099409 -0.034969617 0.019409504 0.048231255 0.047357608 -0.038452543 0.029712353 0.006029129 -0.036934923 0.03583323
symptoms -0.018769491 0.01981299 -0.022159958 0.033939842 0.025098037 -0.01025765 -0.021467686 -0.022178996 0.013299707 -0.04743712 0.030259658 0.019436691 0.04751989 -0.023082031 -0.016588379 0.029998269 -0.040026486 0.029130425 0.019168463 -0.00811398 -0.017315496 -0.03215058 -0.03739085 0.04768685 -0.0012733229 0.009620227 0.02340896 -0.0077794306 0.0023060925 0.044893112 -0.0003517978 0.0027521849 0.036672924 -0.01902089 -0.03398887 0.040423367 0.022521649 -0.013317954 0.012587223 0.010867573 -0.014888547 -0.0058931224 -0.026102662 -0.013601802 0.043250766 -0.020485913 0.0057657845 -0.0005254634 0.04294734 0.036679994 -0.017771136 0.00021970272 0.016200554 0.008343659 0.023255598 -0.041830193 0.001265537 0.0060678013 -0.0056507476 0.026928816 -0.0154643655 -0.036707483 -0.012845419 -0.009996165 -0.019499732 -0.029223526 -0.007918216 0.01798186 0.0065029487 0.043411624 -0.014128495 -0.026653124 -0.021797001 -0.03158982 -0.020351375 0.0085289255 0.046802606 -0.013044119 -0.023184026 -0.0119326 0.008907296 -0.043767452 -0.023330295 0.00014312193 -0.018971194 0.036169555 -0.03458663 -0.01655364 -0.030800177 -0.017108522 -0.037389148 0.036458705 -0.043433476 0.008747935 0.032513287 -0.020074738 0.03624345 0.029623453 0.00097029284 0.033108626
while 0.017750982 0.031314638 0.027154576 0.009433605 0.035675716 -0.042803586 -0.037555885 0.012351345 0.011774849 -0.025271332 -0.028304696 0.0008829124 0.0062246695 0.037250113 0.03054336 0.02572323 0.02635819 -0.031078804 0.011036754 -0.03280057 0.0048275217 0.004937649 -0.03934144 0.040418874 -0.030414034 0.035079155 -0.026871288 -0.006018102 0.022699025 -0.0045851357 0.028322186 0.04533169 0.018612672 0.0010525957 0.047279965 0.012360908 0.047838878 0.031928632 0.004393317 -0.008017588 0.026703421 -0.026697887 0.031267885 -0.043149065 0.003622137 -0.042809047 -0.033994816 -0.038583457 0.014291491 0.032563794 0.010043621 0.038507257 0.0013884678 0.025380615 0.04534402 0.04088 0.00506394 0.005595863 0.028036784 -0.0076872483 0.0119333975 -0.030369485 -0.035111655 0.026082564 0.026717436 -0.031287514 0.020490218 -0.04531164 0.009843767 -0.00025316328 0.03524066 0.036454212 -0.023729479 -0.032633997 -0.00981196 -0.02410518 0.025624666 -0.010195803 -0.004785966 0.03762171 0.034178305 0.011570048 0.03798229 -0.037632108 0.033857968 -0.015411101 -0.043629944 -0.04708631 0.020268861 -0.03800229 0.038018417 0.027288172 -0.031184172 0.04576579 -0.021451557 -0.019963516 -0.047484364 0.0066708922 0.016467098 0.029559921
3 -0.0026798733 -0.047106553 0.023819331 -0.019128418 -0.040179204 0.03318662 -0.028700829 -0.0053053014 0.04718944 0.024277892 0.012828711 -0.024407089 0.020205561 0.023581807 0.022607613 0.04333112 -0.0240026 -0.04341626 -0.003852833 0.035711374 0.04244859 -0.033453345 -0.0024298541 -0.036430694 -0.012496211 -0.046382356 0.016141567 -0.045234572 -0.03581462 0.014459085 0.019539524 -0.00031412765 0.02613547 0.040893886 0.048095677 0.009123933 -0.04183173 -0.045369066 0.014372613 0.036558796 -0.021049095 0.00080401823 -0.03807651 0.010714136 0.026025418 0.049730513 0.008994054 0.022439871 0.036921468 0.037895095 0.01153015 0.03835282 0.024570312 -0.014481805 0.04996201 -0.029897798 0.017650213 0.04585054 0.031813506 -0.028625285 -0.008636735 -0.007707428 -0.029362286 0.043328192 0.039283525 -0.048029818 -0.048101187 -0.019233216 -0.03841474 -0.01509862 -0.01868651 0.035903465 0.006508194 -0.0038498528 0.009663187 0.030035589 -0.03168708 -0.036019444 0.034297634 -0.035366237 -0.036559034 -0.04389074 0.035451416 0.004119564 0.040716138 0.039035592 0.0026522502 0.020647932 -0.04521532 -0.048814155 -0.011389554 0.015762735 -0.023053622 -0.04035666 0.031887855 0.02966782 0.028349008 -0.036225043 0.0422089 -0.042526852
this -0.007291816 0.02903575 -0.015196692 0.017192628 -0.0045413747 0.02735639 0.001923848 -0.01641623 -0.048501886 0.013438415 0.040855434 -0.010363162 -0.0126489885 -0.025981558 -0.04519638 -0.014455318 -0.013584219 -0.017072368 0.03987186 0.022893433 0.03451586 -0.00432501 -0.0073450916 -0.01036308 -0.030064583 0.03577188 -0.0033956058 0.012397505 0.0073415413 -0.00031039864 -0.019803215 -0.04562354 0.03377532 0.017340396 0.028787304 -0.025333285 0.007044267 0.012048028 -0.024339367 -0.043549635 0.04317868 -0.044670414 0.00014965609 0.027209792 0.044310186 0.036170844 -0.010063004 0.026767623 -0.015253745 -0.0326985 0.02621572 0.026489902 0.027786065 -0.044128787 -0.02844497 -0.0031704083 -0.023110855 0.023203958 -0.024161791 -0.04157127 0.01328316 -0.0035311691 0.046196137 -0.024375474 -0.016114354 0.0011445507 0.03229599 -0.008888625 0.00351993 0.04949479 -0.04043131 -0.012530327 0.00013379008 -0.0014022216 -0.03786256 -0.018444322 -0.023637021 -0.009115733 0.008171905 0.01149559 0.042728033 0.021078017 -0.03324716 0.021563936 -0.027092887 0.036550973 -0.0100190155 -0.029164363 -0.02462448 -0.048883665 -0.027268851 0.023717437 0.047719207 -0.012421895 0.022433612 -0.020229816 -0.023430586 -0.0126873255 0.023012485 -0.010042809
that -0.0185902 0.042120997 0.011216164 0.04711766 -0.010347128 0.033889268 0.031901512 -0.007953785 0.01863226 0.0053765886 -0.013438962 -0.042874586 0.015356969 0.016583193 -0.005331505 0.044738833 -0.0016004443 -0.04666077 0.043251965 0.016379539 -0.03773594 0.043848064 -0.03782711 0.023995113 0.019940507 0.005277764 0.045874324 0.03845581 -0.0015131012 -0.036624275 0.031754326 0.044295613 0.049578596 -0.010675728 -0.007671654 -0.046587087 0.029224131 0.02680358 0.026330482 -0.03200487 0.02428342 0.007328607 -0.029307533 0.04318848 0.0044281855 0.03602005 0.043477427 0.035969328 0.011646818 -0.008402456 0.04063176 -0.032657705 0.029330019 0.020837892 0.0029049888 -0.02659421 0.026270736 0.04422084 0.010551907 0.04252461 -0.007264208 -0.018337287 0.025647137 0.018227782 0.045375083 0.021138813 -0.034603477 0.02644327 -0.0023141615 0.02607293 0.03529061 0.034271564 0.03036623 -0.0130949505 -0.01931876 -0.01310892 0.019594219 0.0043387525 0.0076765902 0.018016908 -0.008127641 0.03441092 0.022238526 0.04149847 -0.044360828 0.038708437 0.037645627 0.018951323 0.039149094 0.014095973 -0.022908961 -0.03754721 0.03536124 -0.013868369 -0.033771098 -0.00075075775 0.040808115 -0.044317782 -0.04206704 0.028364692
can -0.012307085 0.028994787 -0.043809056 -0.00076075643 0.013138119 0.0112141855 0.0074610114 -0.0035720356 0.004770506 -0.012108229 0.03844421 -0.025496626 0.01961818 0.00853939 -0.027505541 -0.0013689771 -0.0034402013 -0.03384199 0.030604016 0.027166042 -0.043471407 0.0132817365 0.010334052 -0.018173002 -0.00092690066 -0.0031673312 0.026262548 0.033336964 -0.023844553 -0.030478954 -0.04809419 -0.023385763 0.029738415 0.042512212 0.009363044 0.039794628 -0.028304804 -0.046887495 0.038068067 0.00178615 -0.023180282 0.03689946 -0.03870163 0.025469627 -0.0005482547 -0.029514432 -0.022517562 -0.032690216 0.03324281 -0.031202579 -0.0067825317 -0.0041586757 0.046121363 -0.026201595 -0.016363502 -0.009981405 -0.026003921 0.030849729 0.019194458 0.0002532974 0.012601841 -0.00444771 0.043957423 -0.0038335212 0.049429182 0.027521264 0.04621521 -0.007186819 -0.031020535 -0.025752652 -0.0192212 0.006257605 0.04202899 0.01982459 0.031750787 0.0069416054 -0.029522276 -0.04137639 -0.04114603 0.017360952 0.0066627488 0.0098526105 0.04950205 0.008238245 -0.046119582 0.034354273 -0.0068368427 -0.031382754 0.004927624 0.044733714 -0.029225934 0.04452766 0.03195825 0.04757179 -0.04544828 -0.012585759 0.03054 -0.01476587 0.04357257 0.04176117
in 0.019806657 -0.010780394 0.011596192 -0.030129373 0.048466492 -0.030803312 0.03743333 -0.018900001 0.03375144 0.014199976 -0.043464374 -0.015365124 0.018073332 0.03619485 -0.01846864 -0.022399688 -0.008958172 -0.041765355 0.023036148 0.027770165 0.037511323 0.037596975 -0.024914324 -0.042708337 -0.01761379 0.021145944 0.025121164 -0.0068316944 -0.021905923 0.03179257 -0.033333637 -0.02751304 0.010203052 0.0023908727 -0.048291575 -0.03795607 -0.031855404 -0.037872992 -0.0005012639 0.0131021775 -0.045898914 0.0062816963 -0.043993484 -0.024145437 -0.012772799 -0.022019839 0.006027423 0.006954573 -0.03224373 -0.034321465 -0.046232548 -0.024095273 0.0435257 -0.01120596 0.03399701 0.039320778 0.0107329115 0.013948169 -0.017602362 0.03787985 -0.04470966 0.006317377 -0.0048451647 0.010070264 0.011688031 -0.018926812 -0.014420044 0.0098340735 0.032188658 -0.038214635 0.04661602 0.03257754 0.031055514 -0.03808819 -0.042722203 0.031979587 -0.026163518 0.010453366 0.016779732 0.028177273 0.02943759 -0.01061492 -0.021973526 0.03477076 -0.0074660294 0.034253802 0.00036527961 -0.0025762096 0.012463607 0.013748895 -0.020354629 -0.025634646 0.040513303 0.030871104 -0.015269063 -0.01737827 -0.028404439 -0.028376807 -0.038808715 -0.020431304
major 0.034236435 -0.030535972 -0.015969943 -0.022866143 0.039681125 0.04893175 0.011434127 0.0100949295 0.008908369 0.034275893 0.030415248 0.039667238 0.030707706 -0.030844176 -0.025779475 0.016830776 0.045581605 -0.028011227 0.039850082 -0.031730272 -0.015788913 0.0040074214 0.049014222 -0.020324826 -0.015389334 -0.014251627 0.029581536 0.011474408 0.02858099 0.031953778 0.012209464 -0.020736694 -0.03638605 0.012992527 0.01514497 -0.013756968 -0.037548017 -0.02243247 0.0475937 -0.018220425 0.023099456 0.024379496 0.030338112 0.030174468 -0.010911204 0.024313603 -0.039201893 -0.018714152 0.012688387 0.040925134 -0.041215777 -0.04668596 0.025811758 0.026190806 0.04998741 0.020851884 0.010251056 0.039371584 0.049952064 0.04519086 -0.035052918 0.045927215 -0.0012220517 -0.017297793 -0.03185395 -0.018024541 0.014152039 -0.026506543 -8.946657e-05 0.024392795 -0.037165154 0.0014008172 0.044253323 -0.014380336 0.031953994 0.0207862 -0.041035604 -0.011188544 0.0015836582 -0.01534605 -0.013902258 -0.032692865 0.0054696687 -0.0369545 0.032669496 -0.023971546 -0.032075584 -0.031740487 -0.020548476 -0.048087504 0.043838326 -0.026141703 -0.012777269 -0.045346975 0.030814875 0.0335421 -0.01961708 -0.039376806 -0.02645861 0.03320301
driver 0.012720238 -0.007243477 0.011803724 0.01903775 0.022606742 0.011734106 0.0042924397 0.047081757 -0.0145226605 0.03833032 -0.023598516 -0.0122976415 0.038216148 -0.012521587 0.046010163 0.027277078 0.036413383 -0.047954 0.013991509 0.035411727 -0.029930903 0.014796879 0.0017868504 -0.009249758 -0.036336243 0.03008623 -0.00992652 -0.048164178 0.00044497102 0.024421725 -0.020370174 0.007623948 -0.049327113 0.007978179 0.037109885 0.043197524 -0.002168905 -0.01516062 -0.04121896 0.031484332 0.00026233122 0.0415383 0.018363986 0.04644947 -0.047851335 -0.030567968 -0.011138596 0.03447474 0.011577774 0.041026305 0.039389495 -0.0036279447 0.028557766 0.02994747 -0.04021319 0.03875688 -0.014890432 0.0411891 -0.0153977275 -0.01768608 0.04559033 -0.042737305 -0.022648979 0.008309938 0.032421205 0.015136603 0.008008502 0.041530598 0.021761227 0.027703654 -0.029101718 -0.024708962 0.036260854 0.020896737 -0.0020225532 -0.031235445 -0.044203725 -0.019297397 -0.033435524 -0.044507958 0.007929098 -0.032804564 0.017832723 -0.001303006 -0.043352544 -0.010699142 0.034983564 -0.048056245 0.042355005 0.018353608 0.03274485 0.0051859245 -0.013146482 -0.015993118 0.040750574 -0.040932763 0.033550967 0.014758293 -0.027415086 -0.011408269
number 0.003487885 0.03926224 0.024535779 0.027816582 0.01915339 -0.011249244 -0.047286283 0.0074134357 -0.020962788 -0.024532307 0.039749417 0.01653203 0.01694585 -0.036127973 -0.011121966 -0.028093576 -0.0026172772 -0.039548658 0.014695454 0.02368373 0.012365211 -0.047961343 -0.013119854 -0.049666084 0.021869052 -0.00020466 -0.034041524 -0.044890143 0.04803845 0.045097414 0.015456688 0.016325306 0.028686348 0.04128978 -0.036892723 -0.01355312 0.04544777 -0.01656159 0.013004277 -0.038166083 0.03737289 -0.024995936 -0.012629747 -0.04022194 0.026426125 0.02630693 0.0028638355 0.012454748 0.037082825 0.022198979 -0.01582823 -0.039333045 0.008535277 0.00752889 0.017184947 -0.0092489235 0.021099102 0.03133202 0.045210708 0.024356138 -0.0077800155 0.036623333 0.038173188 0.046317283 0.0203236 -0.024827838 -0.0006198399 0.030660775 -0.02103771 -0.009973027 -0.0056809187 0.034048606 0.0018175133 0.04872996 -0.017271616 0.0044247396 0.026484337 0.045656864 -0.036472596 0.04967184 -0.02390101 -0.0014281385 0.041468266 0.04093652 0.030871678 -0.04458338 0.04055203 -0.016449343 -0.02342682 -0.0051272623 0.001899004 -0.043734144 -0.021501983 -0.03956183 0.010283183 -0.016503789 -0.011299051 -0.010009181 -0.0069490187 0.026441764
2 0.016791727 0.0465335 0.045420673 -0.02190671 0.015431609 -0.044187833 -0.036877643 -0.036642026 0.026751388 0.015715096 -0.019589901 -0.03555311 0.017303083 -0.036901854 0.045811187 0.04710264 0.03598659 -0.0438419 -0.030947173 0.02029768 0.010906983 -0.048869133 0.00013928488 0.02055386 -0.00019003078 0.010263622 -0.012968242 -0.006533146 -0.01416371 0.0039811134 0.011173606 0.03737117 0.008681573 -0.036755573 -0.040504802 -0.046911728 0.0014971495 0.03746469 0.010681249 -0.03919355 0.04154202 -0.011197794 -0.012608491 0.03596728 -0.016881932 -0.033943728 -0.00032715872 -0.023714388 -0.0078827515 -0.048047163 -0.020131385 0.04774865 0.0070880875 -0.032797266 0.0030933246 -0.011816394 -0.033745755 0.02965654 0.036244486 0.049325082 -0.010527767 0.030613553 -0.029554296 0.0065855496 0.01525614 0.00058785826 -0.03673638 0.016971562 -0.020841395 0.02244712 -0.023806501 -0.042815506 -0.015046228 0.0330174 -0.029949678 0.008964825 -0.0018949285 -0.030696595 -0.004494142 -0.038940646 0.031893697 -0.006346058 -0.0494727 0.0003883019 0.024357025 -0.016034938 0.038637888 0.0011456124 -0.0023000129 -0.01672877 0.029767644 -0.047664978 0.037445437 0.014481511 0.02305067 -0.021085322 -0.0034577362 0.020320822 -0.026711822 -0.0050043464
speed 0.045516755 0.007997751 -0.040355243 -0.011026181 0.016958605 -0.023131704 -0.037599184 -0.030606223 0.047853615 -0.034244798 -0.030512953 0.027371552 -0.02063625 -0.035742976 -0.023757804 -0.049278557 -0.034189213 -0.036857795 0.04687928 -0.0382509 -0.0032175183 0.029246364 -0.0236336 -0.036197208 -0.00622518 -0.023814356 -0.046569325 0.015077721 0.008427095 0.032254566 -0.021327902 0.018121947 0.039026413 -0.013885926 -0.026526941 -0.049340427 -0.019912137 -0.005744159 -0.047989514 0.0026235469 -0.03336072 0.0030727498 -0.023811866 -0.032867633 -0.017642152 -0.011309922 0.00014455244 -0.030965436 0.0011400469 -0.0155799985 0.04151578 0.014388356 0.0053928867 0.0043179393 -0.008136965 0.014393333 0.039943386 0.04170834 0.010233499 0.00492556 0.022268962 -0.048710383 0.03632773 0.027421203 0.029156353 0.049913254 -0.006282054 -0.04503684 0.03790922 -0.038495123 -0.0468642 0.012452614 0.046977762 -0.04464848 0.044051353 0.030052293 0.01449405 -0.014743496 -0.02919271 -0.042427685 -0.014031816 -0.022142017 -0.042283643 -0.018018961 0.03599454 -0.031934515 0.040592637 -0.00989107 0.023171272 0.030518744 0.021772932 -0.048648655 0.049548183 -0.029329682 0.009676538 -0.00667442 -0.042642713 0.008791875 -0.0031305663 -0.0068644397
an 0.008001793 0.03323814 0.00043271855 0.03499229 -0.020639552 -0.026769042 0.011421729 0.0045586117 0.039239954 0.008693349 -0.019118143 0.03433689 0.023358021 -0.0033620708 -0.028892636 -0.008915104 -0.016966771 -0.006655406 -0.023651814 -0.045991767 -0.018540062 0.040750254 -0.03990351 -0.023153974 0.025109973 0.018163893 -0.011272095 0.006895352 -0.027451921 0.04120815 -0.020381844 0.044225637 -0.018912125 -0.03880602 -0.0062220916 -0.0016481876 -0.033102095 -0.03801731 0.04918616 -0.026121771 -0.0294258 0.046184566 0.004193913 0.029734824 -0.017481588 0.024507616 -0.042497326 0.0011707172 -0.0073925145 0.013763849 -0.009730041 0.031298112 0.0059909336 0.011226676 -0.007915653 -0.02397554 -0.0006985776 0.034995865 0.016847562 -0.041557323 0.039175365 0.033950236 -0.04695431 -0.033300653 0.0010363944 -0.021757185 -0.008071352 0.006844688 -0.04776113 0.020485226 -0.038552247 0.011136077 -0.034995474 0.010103144 -0.026869023 -0.040737547 0.011683464 -0.012123596 0.003498815 0.032616947 0.041329075 -0.040407084 0.029348698 0.03801742 0.010508966 -0.025411977 -0.031863987 0.0013324395 -0.00207014 -0.008545779 0.010212362 0.01961818 -0.023640191 -0.0032365434 0.048918758 0.003468357 -0.033932604 0.025382783 -0.02537421 0.01584107
important -0.043468893 0.025575433 0.04266301 -0.019713689 0.005859591 0.016202156 -0.047268547 0.022318725 -0.02458775 -0.043544687 0.037297275 0.025099661 0.010182679 -0.018979121 0.003110744 -0.02369908 -0.034862746 0.037545864 0.047531854 0.035536144 -0.04659113 0.026053395 -0.020564258 -0.03637891 0.046544615 0.010115325 -0.027024055 0.049659554 0.013954494 0.0370217 0.043250035 0.013556208 0.047389697 0.010736119 -0.01790135 -0.014984738 0.012264453 0.030294407 0.031646717 -0.031400193 0.025998924 0.04726709 -0.018887175 -0.008003317 0.03070252 0.030570377 0.023795974 -0.021388387 0.036466923 0.03308923 -0.044368066 -0.0025279298 -0.04285419 -0.008745421 0.03217954 -0.02132665 0.019468058 -0.002808608 0.009965289 0.010694362 0.017544057 0.03360306 -0.023737384 0.013063911 -0.039165877 -0.008041512 0.033234622 0.042912852 0.047760557 0.040647004 -0.017013274 0.03443564 0.038767602 -0.0115127675 0.019476544 0.042063963 0.03210981 -0.03167987 -0.04687332 -0.015827738 0.023826074 -0.0147738345 -0.014550399 0.035824146 -0.03657336 0.020606425 0.042897057 -0.027524829 7.1477145e-05 0.038480107 0.012446798 -0.025041474 0.03832901 0.007949829 -0.042453397 0.02742548 0.038634133 -0.0064122453 0.0073261373 0.020055663
point 0.041668724 0.0090970285 -0.03393259 -0.00043283775 0.047355536 0.021483984 0.035837952 -0.019828737 -0.009128939 0.017379228 -0.026158024 0.025536362 -0.04764068 -0.02091043 -0.04240781 0.015967999 0.012374006 -0.014824163 0.033933785 0.035432603 -0.03615706 0.04341105 -0.0073828325 -0.03903247 -0.047592163 0.04597198 -0.017150413 -0.043518938 -0.011740673 0.039698485 -0.011619139 -0.027069962 0.009913586 0.04129405 0.047195043 -0.02432369 -0.026541699 0.023862291 0.017142866 0.0060743913 0.0036264062 0.026594881 0.0115376 -0.042257693 0.018307004 -0.044599544 0.0010819063 -0.037588954 -0.017611135 -0.032629505 0.018077936 0.003548313 -0.035265304 -0.019987702 0.04084258 0.03343663 0.042432908 0.013844755 -0.0454365 -0.044798482 0.013367187 -0.024808694 -0.016760588 0.03673554 -0.027627815 0.028712343 -0.013860118 -0.04475192 -0.03284216 0.034047697 -0.045985222 -0.02147385 -0.049214065 -0.040802993 -0.005359102 0.02714065 0.03363457 0.03851557 -0.0041601285 -0.015796483 -0.025691425 -0.032277428 0.008191191 -0.044693973 0.03831238 -0.0344427 0.0017098077 -0.04595101 0.024202872 0.01695602 0.017137002 0.014353599 0.040960457 0.047956053 0.03383458 -0.0022281297 -0.01931194 0.014412526 0.02109075 0.0046030767
difference 0.018723968 0.0036586523 0.001917541 0.042622637 -0.034010075 0.04749726 0.025055576 0.040218856 0.040211644 0.00061587244 -0.0056148283 -0.04534725 0.00044382736 -0.043427516 -0.022303415 0.010081172 -0.039464105 0.041488256 0.03892977 0.030423466 0.027501192 -0.03507463 -0.03847388 0.039236967 0.004872024 0.040762637 0.033062305 0.04166844 -0.03789244 0.04806829 -0.0047184452 0.028894488 -0.016923416 0.037294473 0.049938116 0.021846805 0.011137474 -0.012937605 0.04489119 0.041382562 -0.004597686 0.02615204 -0.03364571 -0.0191558 -0.022095526 -0.01678301 0.02584375 0.028176572 0.025601987 0.0018112063 -0.016263187 0.028516743 -0.025768174 -0.024507308 0.008492958 -0.026836265 0.039323937 0.03182168 0.049357902 -0.0030312762 -0.005398929 -0.041417062 0.016671423 0.00952512 0.035313953 0.036128055 0.02581973 -0.040584076 -0.023508418 0.03945365 0.017624084 -0.03534784 0.015323367 0.008474242 0.005154349 -0.033331394 0.047031734 -0.041893683 0.04160854 -0.013881337 0.008322716 0.040310275 -0.027171923 -0.04129734 0.029136214 0.024685588 0.0043894537 0.048991766 -0.003840208 -0.014098585 0.029264022 0.04613502 -0.040233325 0.048196983 0.016241375 0.030187536 -0.043699753 -0.019864047 0.019053403 0.0029679313
two -0.0025553815 -0.03903097 -0.031350493 0.02312709 0.023975458 0.04689249 0.009165406 0.018385198 -0.024868203 0.0076357014 0.02006394 -0.027255297 0.04813594 0.014514651 -0.0232705 0.027625691 -0.011415768 0.023862693 -0.03625349 -0.04108839 -0.024656033 0.029559981 0.026751254 -0.01677363 0.019759681 0.037548933 0.046824444 0.015214656 0.010282923 0.027138922 0.015141476 -0.034184076 -0.004684113 -0.010811068 0.025284614 0.02376822 0.023145948 0.0020128265 -0.029180026 0.04305699 -0.013437856 0.040313233 -0.022624124 -0.04254632 0.017512057 -0.005251359 0.04540554 -0.00489961 0.0012123585 0.04196549 -0.011920106 -0.0310359 -0.015455544 -0.010816254 0.0003676787 -0.0049331896 0.0034245364 0.009201657 -0.015434157 -0.037128817 0.045496847 -0.0035933368 0.034550477 -0.03641119 -0.020200694 -0.0097556 0.012474548 0.0035104044 0.013061535 -0.0094924085 -0.030443048 -0.04702562 0.037686322 -0.021064056 0.003793858 -0.017497312 0.048925225 0.033532213 0.008741379 0.020314481 0.046755757 0.019449856 0.018720794 0.04951023 -0.025567342 -0.021120667 -0.0148769505 -0.008760143 -0.010795139 0.019194413 0.046845827 0.0451723 -0.021970559 0.018201496 0.007511519 -0.0153378025 -0.031794287 0.014780369 -0.028671384 -0.025353337
has 0.039795052 3.0621886e-06 -0.025917267 -0.00207261 -0.026794363 0.045736935 -0.04770991 -0.03577738 -0.047437645 -0.03818761 0.035674635 -0.036633074 -0.03302586 -0.041989613 -0.049456336 -0.045501817 -0.035201393 0.02322698 -0.010267831 0.004627038 0.045744967 0.031083312 -0.0133115165 -0.03553853 -0.017604958 0.0047101974 -0.012274038 -0.005299531 0.022178058 0.04520147 -0.0016322508 -0.031034363 -0.037160836 0.041944195 -0.038739085 -0.028643323 -0.032998204 0.0045471676 0.010257147 0.009963524 0.022681642 0.034837607 0.022228662 -0.0369892 -0.01727724 0.006514132 -0.012710236 -0.021360828 0.03901248 0.020729307 0.03169136 -0.04810244 0.0106395595 -0.045932245 -0.03311006 -0.04814414 0.043515455 0.047477473 -0.043870833 -0.022152996 -0.013969373 -0.012567557 0.027372573 0.01797178 -0.030704249 0.040368345 0.046833504 0.014780071 -0.014516044 -0.019374942 0.04124618 -0.023227705 0.01857635 -0.03955827 -0.020213425 0.04670984 -0.0296497 0.035648834 -0.00013791397 0.03503308 0.0027950518 0.0018447749 -0.017890524 0.01063497 -0.012980081 -0.035471678 0.03826754 -0.014829695 -0.037349068 -0.029807437 0.019942176 -0.0041714422 0.022801135 -0.025163675 -0.0004024394 -0.026730407 -0.014404666 -0.0092736855 -0.0460951 0.042538587
median -0.013421081 0.036301423 0.023376297 -0.017172348 0.014017496 -0.001777269 -0.04095905 0.04709934 0.009443305 -0.045201506 0.022191558 -0.038712718 -0.04858048 -0.016897522 0.010891356 0.040795516 -0.019632995 -0.024555707 0.03150041 -0.04671028 0.046916198 -0.00731045 0.03863075 -0.038722087 -0.023818243 0.033512477 -0.008948732 -0.0049263127 0.015140127 -0.040263664 0.002117049 0.00089282915 -0.04762825 0.043324593 -0.020596826 -0.019741034 -0.025755716 -0.049988855 0.020788971 -0.042981353 -0.048831046 0.010367475 -0.024993254 0.0025683641 -0.022288967 -0.021423196 0.019754652 0.012504224 0.018102061 -0.024331141 0.028660621 0.012662444 -0.041057646 -0.04154084 -0.025312424 0.04155184 -0.0020169131 -0.049793627 -0.035752047 0.008303247 0.022134136 0.0158262 0.006954562 -0.009581756 -0.0028285272 -0.03639271 0.04364952 -0.016653143 -0.01732359 -0.0040127523 -0.018623568 0.041932035 0.04503547 -0.014875092 0.04965229 -0.03936418 -0.022279536 -0.043121457 -0.0070343837 0.02879386 0.017498326 0.030628297 0.032820348 -0.005892087 -0.049616266 0.03994142 -0.015936434 0.0051204674 -0.007054843 -0.03679558 0.019391503 0.0049544945 0.00837202 -0.038226377 0.024932433 -0.048793912 0.021246675 -0.041075625 -0.025531506 -0.014074959
incubation -0.0080089085 0.010879181 -0.035758268 0.028647188 0.0052462816 0.045258883 -0.01927768 -0.002280224 0.017578233 0.02937499 -0.027401878 0.023361135 -0.030347062 0.018579472 -0.015787505 0.015170779 0.0031110868 0.028043162 0.015056718 -0.024427151 0.030957554 -0.04470711 -0.020169139 -0.031383514 -0.034043312 -0.035163023 0.036965374 0.00541804 0.029574405 0.0068240277 -0.03976816 0.0019884333 -0.02876903 0.036722872 0.020282391 0.0062816516 -0.035598874 -0.024120236 -0.022142792 0.0054295287 -0.04182149 -0.038762618 0.040350784 0.016710017 -0.044723667 0.022547532 0.022150759 -0.042949688 -0.04443859 0.045507792 0.0045312755 0.045641687 -0.019313991 -0.009749126 0.041013066 -0.03107741 -0.0059686676 0.008769166 -0.032242645 0.044832576 0.042819057 0.009520851 -0.0044027194 0.036459472 -0.033058226 -0.045081057 -0.046963967 -0.011372913 0.0034231544 -0.049493708 -0.008235704 0.008122135 -0.015972305 -0.0428905 -0.015417017 -0.0415866 0.03087825 -0.02107519 0.024056468 0.008277714 -0.040468346 0.015824888 -0.035440553 -0.020084202 -0.04867841 0.027215865 0.008996882 2.188608e-05 0.013042871 -0.043234315 -0.00764326 0.042280685 -0.0016055219 0.011678707 -0.033631433 -0.04558326 0.016883317 0.04485592 -0.035002567 0.046200667
period 0.017018389 0.025256183 0.025701847 -0.01314782 -0.02740289 -0.023576511 0.003531348 0.00470512 -0.036468793 0.022584628 -0.03649646 -0.028668059 -0.0068801045 0.011302911 0.04267272 -0.0089216605 0.041012827 -0.010935783 0.009976424 -0.039899398 0.016662966 -0.026537811 0.02458712 0.025213514 0.04830761 -0.034231685 0.025371674 -0.039874136 0.015794221 0.040631082 0.016539108 -0.028125156 -0.015406657 -0.020129932 -0.048339643 -0.013705123 -0.0026251785 -0.0378335 0.0011613145 -0.01188419 0.0065536015 0.015288975 -0.009304486 0.018276516 -0.040499557 0.026914682 -0.0049441084 0.002212204 -0.033929847 -0.018677045 -0.02018075 -0.040649127 0.01028217 -0.009051871 -0.04354323 -0.02658062 0.034985732 0.048600856 -0.035669137 0.018751394 0.009753156 -0.024611486 -0.0019568428 -0.0034681335 -0.03265828 0.01205989 -0.04825666 -0.0034736283 -0.006805323 0.0131903775 0.023136664 0.03476696 0.00991527 0.018894125 -0.048798967 -0.01465752 0.04362848 0.031585526 0.0065988526 -0.044556715 -0.0053755753 0.028165806 0.030322585 0.023703028 0.042112876 -0.017961908 -0.031364515 0.048809502 0.031769384 0.019561384 0.025655184 0.018057857 0.030265998 0.004370142 0.03313719 -0.026553845 -0.031371772 -0.042155385 0.043835375 0.02269322
infection 0.009235062 0.020205405 0.0070803054 -0.036023248 0.024488475 0.041083936 -0.014434159 -0.037391603 0.00202284 -0.00979054 0.044680763 0.04378814 0.018337715 -0.0027608871 -0.043025386 0.011649609 -0.03220334 0.011571109 -0.022490954 -0.035097253 -0.005985867 -0.045443512 -0.0396842 0.0121582635 0.047909763 0.01884308 0.003684748 0.0007715449 -0.012258768 0.015769292 -0.02064885 0.04611254 -0.047232416 0.02315363 0.007927753 -0.002836287 -0.018183898 -0.033525765 -0.024055183 -0.0135581605 -0.029737413 -0.025365174 0.010266267 -0.038546335 -0.023982752 -0.02444668 0.014911819 0.011464216 -0.027200485 -0.0004948154 0.048125792 0.0060287714 -0.014747739 -0.03143139 0.022623565 0.022190738 -0.018389307 0.038386237 -0.020845056 -0.010955859 -0.037522875 0.017982509 -0.005899094 -0.021043826 0.008633532 0.000590004 0.008093774 -0.0016079172 -0.036024213 0.0039572343 -0.0084560625 -0.034173477 0.005698085 -0.031087054 0.0050290003 0.044985447 0.011215471 0.034441818 0.015481342 0.020098556 0.028944623 0.0012012124 -0.014018379 -0.026262177 -0.021245373 0.04196166 -0.03562509 0.02929959 0.035870362 -0.004003085 0.01535647 0.04371674 0.005353857 -0.031980947 0.04365093 0.037018787 -0.03310596 -0.0155880675 -0.007353127 0.011655927
successive -0.021031296 -0.030406643 0.04350512 0.03449482 -0.036956824 0.004063092 -0.012803387 -0.0068853125 -0.0140174255 -0.0037929192 -0.04167186 -0.006532289 -0.00018177181 0.04412243 -0.01584395 0.020015325 -0.02919506 -0.043400895 0.0032241233 0.009099819 -0.043997157 -0.042336773 0.028191093 -0.029971851 -0.033806764 -0.013528597 0.041095857 -0.03699081 -0.029273272 0.008851755 -0.025706066 -0.0028965585 -0.04148482 0.004201211 0.017223943 -0.03664602 -0.014842726 -0.011514246 -0.014930833 -0.0316646 -0.0064876676 0.035032842 -0.032212988 -0.0041654 -0.0407786 -0.04828335 0.042509582 -0.03135278 0.009544075 0.0407759 0.04253203 -0.014185786 0.045883585 -0.0074214563 -0.014243484 -0.03274186 0.048145045 -0.0014711842 0.0028889403 0.0066379793 0.0070856214 -0.02168249 0.032771025 0.004627727 -0.032795012 0.041370403 0.00070079416 0.010479201 0.021059167 -0.035719644 -0.04178957 0.038179744 -0.040181458 -0.010926891 -0.045743313 0.0038371086 -0.030225242 -0.011456691 -0.011337221 0.012501869 0.028455842 0.04953066 0.018003259 0.0077385306 -0.018408228 0.024894241 -0.04561714 0.0276207 -0.021617984 0.024799619 0.019134726 -0.035770405 -0.012896955 -0.021694446 0.02302197 0.04801129 -0.028262926 -0.0060745105 -0.020766033 0.023178067
cases 0.009538151 0.0037706606 -0.0053939708 0.019080851 -0.0029111393 0.037977602 -0.026221573 0.048870075 0.018029418 0.012841072 0.027604315 0.03867935 0.020215604 -0.007968593 -0.03611964 0.04171017 -0.034858037 0.036990616 0.044627737 -0.0404343 0.03184635 -0.022177232 -0.033797134 0.0023765191 0.010683667 0.026144478 -0.028771127 -0.015982378 0.005615033 0.0109192245 -0.02614057 0.02892499 -0.028650248 -0.0091329925 -0.022992635 0.016251218 0.04443034 -0.00017563254 0.003935527 0.0069485307 0.023904476 -0.028483689 0.0049136654 0.035980117 -0.024618244 -0.002051711 0.012967352 -0.02203462 0.007897757 -0.019477619 0.019814182 0.03713293 0.03805716 0.04143313 -0.011957288 -0.011531413 -0.033318438 -0.04304799 -0.033635043 0.04031116 -0.044825982 0.029882696 0.0011706352 -0.022838557 0.025219176 0.009704925 -0.033047892 0.004621256 0.045550156 -0.0073977 -0.018805934 -0.011715032 -0.012144841 0.044307616 -0.016279269 -0.044314146 -0.0042750835 -0.0367903 0.008077621 0.04245547 0.017501142 0.039846662 -0.048378564 -0.044846322 -0.02262534 0.04822619 -0.029672159 0.044762675 0.022063937 0.049989764 0.0014042482 0.020859566 -0.025566578 -0.025161136 -0.037484337 -0.01733607 -0.01709541 -0.00084763765 -0.003471218 -0.005498253
estimated -0.015686452 -0.040745877 0.042376902 -0.039474547 0.038543228 0.0010174736 0.04519284 -0.026799703 -0.03177476 -0.04739077 0.040715043 -0.042239666 -0.044131912 -0.039884485 -0.022493172 0.009581961 0.014844846 0.0038895234 0.0030078776 0.014979329 -0.039308928 -0.008772872 -0.032958973 5.4500997e-05 -0.008490812 -0.01132834 0.024749126 -0.035867535 -0.008492339 -0.032881454 -0.015328694 0.04617751 0.039639127 0.011211239 0.037108038 0.021311525 -0.013788976 0.01253346 0.0211314 0.0043232813 0.03886113 0.034029808 -0.005797196 -0.028177416 0.0487372 0.036417972 0.01458111 -0.02252208 0.030118834 -0.03274484 0.025062013 0.0084523335 -0.009922553 -0.021790659 -0.021171069 -0.022901952 -0.0016313307 -0.037634183 -0.009249758 0.022463027 -0.013358556 0.025234226 -0.010204732 -0.03561797 -0.003523551 -0.022785736 -0.04995177 -0.020367015 -0.022422398 -0.046342064 0.00011693314 0.047537755 -0.04031793 0.019751836 0.02880082 -0.033727337 0.023514677 -0.047555532 -0.04807048 -0.022153843 0.026173402 -0.004759766 0.0055483803 0.019497942 0.04877085 0.028736744 -0.028278554 -0.03990059 0.041460585 -0.021798313 -0.009658705 -0.009746291 0.028378312 0.038856957 0.013432775 0.039033774 -0.04080231 -0.04061675 -0.047173094 -0.020364536
6 -0.036669552 0.036062565 -0.037355803 0.043918397 -0.03180003 0.00033911318 0.0361961 -0.037588418 -0.047797527 0.004650153 0.024213027 -0.0026261434 -0.041238904 0.049277555 -0.023480535 -0.0006946549 0.03613461 0.022290114 -0.021788394 -0.026672935 -0.0017355569 0.020256829 0.042697523 -0.032210935 0.034076694 0.030000534 -0.0058670864 0.017978553 0.0062725544 0.015073013 0.030387174 0.023364235 -0.026808739 -0.017803978 -0.017377209 0.017492507 -0.00090465695 -0.049726903 0.03913111 -0.001123406 -0.0066469535 0.005776845 -0.015716337 -0.009695411 0.019231226 -0.014947463 -0.0017567873 0.0062813982 -0.005109906 -0.04195118 -0.041076146 -0.030378615 0.0026814826 -0.016693722 -0.015058421 0.00075186417 0.04484543 -0.040999614 -0.0359552 -0.022425199 -0.008510612 -0.028570188 -0.014345728 -0.031813897 -0.016293883 0.04305509 0.03848389 -0.046246003 0.02271733 0.015004206 -0.008602131 0.045355383 0.013864782 -0.0005601868 -0.007728778 0.019242194 0.04612067 -0.017175686 -0.039616585 -0.021929646 0.0286907 -0.037983 -0.021510376 -0.04993713 0.024570618 0.043576647 -0.04409584 -0.03280218 -0.010302819 -0.035179973 0.02338883 -0.044529606 -0.03361844 0.030934181 0.024176959 0.011221636 0.021382455 -0.019858837 0.0063611977 0.019388746
means 0.005842436 -0.027473545 0.04970706 -0.0014524348 0.009576999 0.049097244 -0.0035456792 0.022381429 0.018714536 0.018010665 -0.024432683 0.003028296 -0.041006185 0.029276084 0.040227983 0.016982209 0.023468126 -0.030545522 -0.040653862 -0.0008071549 -0.024618292 0.02871034 0.029269565 -0.023400152 -0.02471683 -0.02836436 0.017597768 -0.016756557 0.008176494 0.04223777 -0.0015242323 0.043297533 0.034673024 -0.023149563 -0.030557347 0.034525994 -0.013647199 -0.049077716 0.04659808 -0.02434603 -0.04380503 -0.035730064 0.04134125 0.04960611 -0.040592242 0.022356417 -0.018315412 0.019052241 0.03256354 -0.012938034 0.01203388 0.0007614717 -0.034444023 0.048280526 0.02672157 -0.0010288134 -0.0032517686 -0.02961067 -0.007387519 -0.021061242 -0.01912632 -0.04310533 0.02586652 -0.021848453 -0.048379805 0.026704025 -0.02341113 -0.0015748851 0.041049812 0.012769293 -0.037890755 0.016341496 -0.021526575 0.026068393 0.030084495 0.043783594 -0.0253896 -0.019542241 0.04948205 -0.014387749 -0.025649 -0.025320709 -0.048123073 -0.0103536025 -0.008532058 0.026104752 -0.012673199 -0.012853168 -0.023912346 -0.030267144 3.0077994e-05 -0.011318408 0.0036134943 -0.00134027 0.0144017 -0.009114813 -0.0038561933 -0.0027514473 -0.0037767775 0.011426449
spread -0.013213731 0.04897091 -0.011442125 0.028123531 0.04869585 0.0009700656 -0.04866135 0.014831949 -0.027807701 -0.0036330111 -0.04818642 -0.015300274 0.04731908 0.020400714 0.026413549 -0.04072062 0.01617435 -0.0046011917 0.004901182 0.0017878786 0.045335 -0.0041983724 0.012072135 -0.008789349 0.025012638 -0.009567715 -0.020375645 0.028626475 -0.036778998 0.028764594 -0.02782066 0.026999425 -0.036759757 -0.02774557 -0.01931169 0.032095138 -0.02344109 0.034442198 -0.03362893 0.012125861 0.017039958 0.03867991 0.035357956 0.025197234 -0.003707599 -0.04963354 -0.023509253 -0.010560941 -0.008550514 0.009967733 0.007871818 0.01272526 0.04130799 0.043465007 -0.032843195 0.038846795 -0.04852394 0.010832656 -0.04422585 0.023871448 -0.009654988 0.027342152 -0.007653974 -0.03117683 0.004686974 0.034830224 0.04183047 -0.011379324 0.040213514 -0.030022765 -0.0094171055 0.013957325 0.008487858 0.027884852 -0.0061099306 -0.021973813 -0.026270533 0.028738227 0.02794696 -0.047744658 -0.013757467 -0.02733524 0.0014188774 0.0435868 -0.011504807 0.045376215 0.011902131 0.025830235 0.047597375 -0.034503482 0.039523456 -0.022935761 -0.036625754 -0.022928549 -0.041957416 0.034863386 0.046113137 -0.033353437 -0.011182129 0.0055845007
faster -0.0011776201 -0.012979865 -0.01230564 0.0014927611 0.046538506 0.029573027 0.008858897 0.0062857866 -0.04805435 -0.0057487376 0.014717948 -0.0042656064 0.027750585 -0.015162587 -0.0040064454 -0.02378738 0.019926097 -0.018536828 0.033073653 -0.015196681 0.023174856 -0.006568648 0.035715405 0.03798834 -0.0077407584 -0.013218712 0.040868293 0.031559456 0.00058377907 -0.0027079694 -0.0057944544 -0.022515202 -0.024911035 0.0075240955 0.030943338 0.00818963 0.034892056 0.03785533 -0.017123688 -0.022245754 0.025318112 0.027027715 0.026849832 -0.0050163046 0.03206717 -0.0058392175 0.0049172044 -0.04549681 -0.028611219 0.00733006 0.034689333 0.026521895 0.01717529 0.002246894 -0.0073053837 -0.027128387 -0.044723548 0.020232324 -0.046358276 0.0051935315 0.033753965 0.0022140741 0.02586056 -0.017862 -0.031340875 -0.01672753 -0.024145842 -0.030216515 0.007632874 -0.041669846 -0.043848027 0.034504976 0.044018198 -0.032935012 -0.011282563 -0.034713794 -0.009179927 0.028338227 -0.030583978 0.04820049 0.013729859 0.018740658 -0.0143344775 0.011323202 -0.0012037642 0.0037975535 -0.010942735 0.021441076 -0.03220885 -0.029091382 0.009429835 0.021361161 -0.04984467 0.0061864965 -0.030357052 -0.005854737 0.014618363 -0.023662532 -0.011834931 -0.04286423
further -0.020926058 -0.008645367 -0.021232367 0.043813195 -0.028099215 0.038409296 -0.040840793 -0.03653101 0.010061108 0.012046181 -0.010115195 0.010430466 0.033537377 -0.009310663 0.024751808 -0.022793246 -0.009764589 0.049611356 0.035854522 0.01018374 0.044013206 0.0312994 0.038906705 0.001309298 0.028484408 0.02612919 -0.0015209205 -0.011442374 0.007175386 0.035727683 0.049453977 -0.049426187 0.027900543 0.006028343 -0.03865113 0.030449118 0.016451303 -0.014236521 -0.0026604906 -0.029464424 -0.039980568 -0.03267298 0.02278677 0.017894272 -0.047266673 -0.011121966 -0.0051767007 0.030440796 -0.03385345 0.018259015 -0.019878913 0.043342087 0.043207753 -0.048187852 -0.0035201684 0.031072382 0.028920833 0.0351984 0.02538583 0.0365039 0.025202189 -0.020783877 -0.0010551699 -0.011531033 -0.013817299 0.042511787 -0.019519031 0.04165708 0.035033952 0.014901448 0.011758111 0.044192765 -0.00011660904 -0.03871771 -0.008617736 0.016904723 0.045845177 0.019221317 0.024247658 -0.04995581 0.041496743 -0.032867372 0.016262855 0.016706172 -0.0395826 0.0063541904 0.02124193 -0.04530933 0.007154513 0.018017318 -0.03874755 0.018901017 -0.017539024 0.02727357 0.03700391 0.032971587 -0.049580254 0.042040136 0.019414175 -0.032936215
first 0.04271472 -0.035291683 0.03158233 0.033253733 -0.026074683 0.014472451 -0.037229717 0.025570024 -0.041852605 0.035413984 0.0054369792 0.018666971 0.04971913 0.0033553466 0.003115259 -0.030379284 -0.007978786 0.0456543 0.009611152 -0.02720548 -0.018761754 0.043216776 0.006177269 0.010456145 0.0037008636 0.029035095 0.030244712 -0.009495877 -0.002575636 -0.044923853 -0.016440142 -0.0027998462 -0.011843085 -0.045784783 0.0248353 -0.034380853 0.004437603 0.048646156 0.031428184 -0.043531574 -0.01624497 -0.0056640506 0.0031946078 -0.011666618 -0.048701752 -0.044937503 0.01020243 -0.017079137 0.0421178 -0.0040131584 0.045937512 0.0042462572 0.036465716 0.012467753 -0.0073753 0.026517306 -0.03788974 0.032330904 0.02635504 -0.03240304 -0.013955306 0.010170758 -0.02705188 -0.03974136 0.006224476 0.032787953 -0.033777572 0.013303805 -0.046160888 0.04217473 0.042804565 -0.014728021 0.0152390115 -0.047485318 -0.037514318 0.027877692 0.048532594 0.0011712313 0.017804597 -0.02898463 0.039705303 -0.04717889 0.030390289 -0.01646433 -0.0049108975 -0.024028564 -0.030189646 -0.015634201 -0.043833863 0.031242345 -0.02163949 -0.027129615 0.042800847 0.02262104 -0.035628475 0.01511215 0.03724612 -0.020883251 -0.006719373 -0.020256853
illness 0.00045643002 0.043344487 -0.03712784 0.015165877 -0.04620415 0.03462633 -0.029103173 0.02128679 -0.030220164 -0.020858621 0.03469957 0.04315683 -0.043348443 0.03320339 -0.03157395 -0.024497688 0.03626034 0.0059444197 0.026900899 0.024885606 0.022913363 0.032203447 0.009672366 0.010623764 0.044115137 -0.026452279 0.005549431 -0.018959178 0.012641873 -0.042673375 -0.04850669 -0.015988518 0.031060684 0.021077935 -0.005094491 -0.033243574 -0.021306133 0.0030339137 -0.038285792 -0.03411913 -0.035800517 -0.005969502 -0.0094254725 0.007599842 0.005933821 0.024602782 0.036031965 -0.038003266 -0.029481042 -0.011139907 -0.043803502 -0.034993697 0.001962185 0.030074451 -0.015327085 -0.010316014 -0.0088867545 -0.04799521 -0.037015557 0.048999224 0.0056931004 0.03593229 -0.038286436 -0.01635164 0.031834517 -0.01663525 -0.046431135 0.028290775 0.0029414184 -0.008377552 -0.028706813 0.024066556 0.03500979 0.04677177 0.023786929 -0.03041668 -0.021360576 0.027079213 0.04345422 0.030145671 -0.023209585 0.0026261806 -0.028132845 3.8396567e-05 -0.011509918 0.04748622 -0.016195633 0.03387377 0.0033735633 -0.007468533 -0.009178959 -0.014048886 0.03918456 0.0073446147 0.017458644 0.03634477 0.04666234 0.014813114 -0.015237428 0.01333053
or 0.034798596 0.007827066 0.01185739 0.02869666 -0.0012661591 0.0479288 0.020203676 -0.033909217 -0.030339062 -0.003350377 0.0011891834 0.015623402 -0.009915125 -0.041355968 -0.012923241 -0.034843694 -0.014918603 0.036318768 0.047040943 0.036045346 -0.014930714 -0.00803256 -0.015044272 -0.04548793 0.01203369 -0.034942437 0.0017532483 0.01690152 -0.022987902 -0.012534212 -0.00909885 0.0099448785 -0.012129329 0.009122968 0.015353028 0.045941446 -0.048812997 0.0137108825 0.03457525 0.0023921952 -0.044493284 0.0015403256 0.018840779 -0.04920838 -0.044266354 -0.006127309 0.0039272085 0.0034777038 0.027307902 -0.025809456 -0.005007528 -0.010051418 0.018997576 -0.024753153 0.010196485 0.01958369 -0.014616884 -0.009390641 0.017796937 0.009107351 -0.021703398 -0.028133262 0.019673955 -0.02437905 0.04838108 0.0031463392 0.016980235 -0.012955748 -0.03494854 -0.041496314 0.0036557429 0.041152943 -0.029540492 -0.023039281 -0.0066759214 0.024013732 -0.03163904 0.014658283 -0.015545357 0.03349861 0.029300716 0.002984248 0.03372984 0.030436661 0.049913477 0.031831454 -0.02591132 0.022794154 0.028765414 -0.042560745 -0.031065142 -0.039339174 -0.047071207 0.018317927 -0.009393882 -0.025019158 0.045304146 0.02696352 0.0044591054 0.0032141693
potentially 0.0448105 0.0062480792 -0.0065118186 -0.022057736 -0.0156236775 0.044362415 0.03178412 0.04335138 -0.0379071 -0.013357293 -0.026494253 0.04185338 -0.011299215 0.017223347 0.022276882 0.03349625 0.030579988 -0.015205465 0.027858604 -0.032785643 -0.031395115 0.030441526 0.03864571 -0.009203054 -0.04713712 -0.039029382 -0.037835397 -0.0038428418 -0.005493354 0.04233228 -0.04614221 0.019418065 0.013700794 -0.04275894 -0.018095173 0.025573086 0.02009343 0.042909887 -0.009159993 0.016082559 -0.037997138 -0.019969845 -0.0059119575 0.045882475 -0.028627312 -0.02754867 0.027833495 0.017267201 -0.00041168928 -0.029444218 -0.045625735 -0.048578907 0.019873742 0.02801815 -0.013801418 0.028222155 -0.014441431 0.005507719 -0.030831277 0.04174954 0.00249343 0.029173736 0.033765886 -0.010709502 -0.014713824 0.03323618 0.005583726 -0.0007470846 -0.0108987205 -0.01037382 -0.01527847 -0.0073539503 0.030969393 0.014937606 -0.02689445 -0.024050856 -0.03411392 -0.009937119 -0.008157194 0.0086069815 -0.008789398 -0.045723964 -0.015093468 -0.045027446 -0.041062534 -0.033158757 -0.030899001 -0.006407261 -0.003520511 -0.001253821 -0.046222817 -0.018412076 0.017974567 0.03513057 0.049946155 0.012113214 -0.013759255 -0.017660417 -0.039586127 0.023327623
pre -0.029362692 -0.013549089 0.0041931383 -0.025938524 0.025203113 -0.04546069 0.025826324 0.027677033 0.02667692 0.025653038 0.01158724 0.019327056 0.043083515 -0.00981041 -0.04347093 0.04298911 -0.043439746 0.048327748 -0.037674 -0.00759976 -0.038664103 -0.023801101 -0.02627628 -0.041861307 -0.04979229 -0.017346404 0.005661629 0.002834022 -0.03058306 0.014738385 -0.023483694 0.04332502 0.030658294 0.0027940646 -0.021132827 0.030706096 0.00444274 0.0076325648 -0.022072792 0.04274564 0.0408859 -0.033820212 0.02978022 -0.025653005 0.0077672973 -0.0049236305 0.023576092 -0.0229535 -0.038847007 0.01507647 0.031016733 0.048255708 -0.020133877 0.01979145 -0.04178519 0.010293998 0.012387872 0.038388405 -0.042056702 0.001887776 0.030713808 0.044134285 0.019419435 0.017969143 -0.018432628 -0.010351658 -0.0041787997 0.0022071712 0.016748857 -0.02807404 -0.0044301376 -0.047356594 -0.018297207 0.036114004 0.036368314 0.022183541 -1.2740493e-06 0.0072563514 0.023386609 -0.041010987 0.008985687 -0.04082645 -0.006293129 -0.03548187 0.03955319 -0.033507846 0.02675258 0.04766016 -0.031759396 -0.0031609647 -0.022877587 0.01883464 0.006165348 0.04492346 -0.01718707 -0.041599907 -0.008874606 -0.012437057 -0.022291398 -0.047073808
symptomatic -0.011797797 0.049972963 -0.0128554925 0.009044804 -0.03625524 -0.025088025 0.032762412 0.044218946 -0.0404781 -0.03114438 0.03066099 -0.026589608 0.0020283237 -0.0024647936 -0.044275906 -0.033532992 0.023257647 0.032483626 -0.022355437 0.015236523 0.036883857 0.04798534 -0.043304194 0.04459374 0.015407812 -0.02762339 0.014280822 0.013805453 -0.034584213 -0.04527935 0.02096298 -0.040430866 -0.02163899 -0.0019376762 -0.042162918 -0.013010524 -0.013877533 -0.028239584 0.0055343285 -0.041760944 -0.016675748 -0.04696398 0.01378664 -0.03861147 -0.010819353 -0.026342869 -0.04720186 0.014145743 -0.022595156 0.029360477 -0.0138024315 0.008123826 0.010470938 0.04519603 -0.03097917 -0.04153663 0.024779525 0.046253968 -0.016777255 -0.0023291 0.0031679496 -0.0025741085 0.039928023 -0.014649499 -0.04883143 0.025415514 -0.0033535473 -0.017198943 0.018099379 -0.007995762 0.03847606 0.049540665 0.021888737 0.041857544 0.0036480203 0.01373725 -0.022129118 -0.04120903 -0.031787574 -0.043157697 -0.023354078 -0.025322247 0.042603303 -0.04997132 -0.02929895 -0.005477868 -0.010212135 0.04959785 0.025727514 -0.033166446 0.009881485 0.047878947 -0.021054102 -0.024179483 -0.025129212 -0.001345776 0.032603335 -0.0146167055 -0.000259649 0.0451751
–transmission -0.036477424 -0.035230614 -0.033376932 -0.045770098 0.009495594 -0.038192224 -0.0011141673 0.021366451 -0.0020597354 -0.022848248 0.029066477 0.030922536 0.046178076 0.009555649 0.017571453 0.02159052 0.009741627 0.011096753 -0.0024127737 0.011503004 0.028737415 -0.04931748 -0.012587704 -0.03407941 0.019110251 -0.013011552 0.017911065 -0.040357567 -0.025876129 0.007348884 -0.01319034 0.0062718764 -0.004438162 -0.0090474 0.04865731 0.027785469 0.03932244 -0.048358656 0.008752108 0.0041239746 -0.04229423 -0.04869449 0.043324564 -0.042477574 0.01696742 0.033037636 0.033419 0.037969958 -0.0045953766 -0.048087407 -0.041052103 0.023133371 -0.0049952157 0.025830854 -0.023697007 -0.010481346 0.033481766 0.039390158 -0.0105964765 -0.041329157 -0.0026040561 -0.019718945 0.025054682 -0.0061284415 -0.0072506666 -0.036633123 -0.010622729 0.046745542 0.038214598 -0.03248638 0.015294816 -0.0014392249 -0.026935054 0.037571404 0.012993429 -0.0362571 0.012420751 -0.045444038 -0.0063199177 -0.043688178 0.040813778 -0.005446233 0.047214244 -0.00159242 -0.03207942 0.0032311901 -0.029035974 0.031112242 -0.0448202 0.02900355 0.038950946 -0.015395664 0.019371998 -0.041227497 0.012739185 0.03701606 -0.009672128 0.03995082 0.03256661 0.048065964
before 0.021628711 -0.036148656 -0.03738134 0.015837107 0.0061604977 -0.0059647188 0.009995125 0.02102201 -0.018118668 0.04330952 -0.0482723 0.02767912 0.0023540743 -0.021267164 -0.008391071 0.046504926 0.034945432 0.039444577 -0.044948973 -0.038739584 0.02708621 -0.036685944 0.036154952 -0.049364377 -0.007258676 -0.035539113 0.021649968 -0.023031248 0.022242155 0.0450526 0.037459325 -0.013706841 -0.03903546 0.039009284 0.002226878 -0.0068736672 0.0069435015 0.02567805 0.027377095 0.01595265 -0.031496763 0.026159871 -0.005188979 0.04403582 0.037658717 0.01662023 -0.04097694 -0.017329406 0.030690204 0.012782667 -0.0027130954 0.004412852 0.00042835623 0.04544593 -0.026434077 -0.011879705 -0.0010590665 -0.031725958 -0.03004315 -0.03571359 -2.6214868e-05 -0.013166346 0.0035093315 0.019180488 -0.010276724 -0.019526554 -0.049210418 0.004314054 -0.037924826 0.0019272454 -0.01995734 -0.034358583 -0.03230976 0.033035386 0.020654906 -0.04096967 -6.489828e-05 0.030574154 -0.029459631 0.036096837 0.039097857 0.037057314 -0.002255857 -0.03808534 -0.02815479 -0.024230886 0.0059455633 0.04615407 -0.019329572 0.027686324 0.027827706 -0.04395416 0.009390354 -0.008779932 -0.031867996 0.024525467 0.020097945 -0.015873455 0.017323721 0.016717222
contrast -0.035688806 0.027183305 -0.023390854 0.002816476 0.027379457 -0.00726844 -0.009304691 -0.03675287 -0.047642197 0.02059592 -0.04755627 0.0030955449 0.017707754 -0.042144705 -0.044573795 -0.015814494 -0.04343455 -0.036407698 0.013189588 -0.012916304 -0.041071095 -0.0025653131 -0.036181737 0.017207805 -0.043890666 -0.034508884 -0.03030101 0.036623586 0.043149803 -0.03969698 0.009370327 -0.03090384 -0.03832809 -0.03334184 0.0408852 -0.044620562 -0.0043833368 -0.016628694 0.0051545724 -0.036322664 0.015849378 0.0271204 -0.019892348 0.035643924 0.021070208 0.032293666 -0.037698947 -0.01341163 0.018672358 -0.03628415 -0.043386508 0.00056148693 0.029076781 0.044410717 0.02103993 -0.020837927 -0.03941629 0.030623231 0.024876285 -0.015494157 0.01954912 -0.0040648356 -0.014899183 0.022032503 0.038861398 -0.023313893 -0.0015629418 0.0035972968 0.033111546 0.023547444 0.035822045 -0.04859228 0.047604356 -0.023074353 -0.047802903 0.014032509 -0.02751856 0.024510551 0.014368024 -0.0032051913 0.0005552396 -0.019261038 0.004401624 0.025288511 -0.032096483 -0.032471 0.033909943 -0.008250367 0.016411733 -0.00017470121 0.011795007 0.0069795474 0.031326238 -0.038438 -0.024499048 -0.034266017 0.036638353 0.019997451 0.023711767 0.0015832074
we -0.039689254 -0.043341722 -0.03687682 -0.0011183992 -0.015834846 0.0076873302 -0.03676014 -0.025457596 -0.04675428 -0.027900696 0.008791387 0.0051807873 0.009527884 0.030176315 0.035569016 -0.045080222 -0.003153585 -0.018415451 0.010861456 0.017304573 0.029746663 -0.038739227 -0.03575953 -0.025696874 -0.009796251 -0.020377219 -0.021640813 0.030250657 -0.009714283 -0.04055488 0.026822362 0.01183182 -0.031688094 0.010105528 0.046360444 0.0020579696 -0.021887243 -0.027564479 0.006420113 -0.017987348 -0.005061507 0.041188624 -0.024364972 0.01881199 0.010031365 -0.005457353 0.028260779 0.0056306496 -0.026246263 -0.03020531 0.017689232 -0.0010089166 -0.039575886 0.046992194 -0.0349435 -0.032476354 -0.013497196 0.016175058 -0.02478305 0.0038145073 0.03113908 -0.027681375 0.0322907 0.035765912 -0.045896042 0.031543974 0.049677137 -0.0042464845 -0.03885727 0.009625841 0.011676919 0.033436608 0.023897935 -0.03486378 0.0008871332 0.023008134 -0.0032789484 0.0042412058 -0.03162825 -0.0043128952 0.02495445 -0.01808083 -0.03099879 -0.039889835 0.011385072 -0.034359086 0.04749931 -0.014420785 -0.006064009 0.001975499 -0.025914324 -0.0067934766 -0.020576883 0.03218973 0.042432237 -0.045458376 0.03345127 0.005827736 0.019691478 -0.02951218
learning 0.044485044 -0.0023230314 -0.030837966 -0.040530004 0.048522327 -0.024774993 -0.0060537346 0.0006360188 -0.013536632 0.03209317 -0.032557894 0.0466231 -0.0044517405 -0.024658918 -0.0059713125 -0.047330704 -0.0015021674 -0.03605753 -0.02392273 0.03205103 0.03775746 -0.009042393 0.016877327 -0.0106089115 -0.042822253 -0.033651613 -0.019727934 0.009119462 -0.008126199 0.004645072 0.0040001757 -0.032825638 0.028904546 -0.049906958 -0.03510339 0.024502661 -0.049279597 0.03414091 0.005900882 0.009153701 0.045771573 0.04913764 0.040361617 0.031798605 -0.025348997 -0.0054311045 -0.007869363 0.030709911 0.027849022 -0.0249079 0.011915911 0.045118723 -0.009548962 0.018702988 -0.03317596 0.007185828 0.014799979 -0.027025282 0.016890932 0.027852964 0.044279728 0.03335849 -0.027473737 -0.020220626 0.0003105998 -0.04970119 0.027406242 -0.02173741 0.043425273 -0.0066884756 0.0060165524 0.04143277 -0.039130546 0.045743886 -0.02065803 -0.04211135 -0.02971747 0.01236235 0.043808494 0.042729724 -0.010357298 -0.047790207 -0.047047175 0.008555282 -0.025801826 0.027480233 -0.040749274 -0.016984247 0.04123218 -0.0087534785 0.03467137 -0.011499476 0.038043167 0.012173653 0.024725888 -0.01812198 0.00993415 0.016608845 -0.024152065 -0.0038823485
there -0.03450823 0.014081035 -0.0365173 -0.0021391138 0.038774896 0.005200088 0.023028705 -0.02482524 -0.01860099 -0.009939026 -0.019910622 -0.018734872 0.02663726 0.027493212 0.042237643 0.03008962 -0.036618363 3.415346e-05 0.007575333 0.048494767 0.023244929 -0.023219515 -0.024603356 0.022414614 -0.04725189 0.031134162 0.03823251 -0.047491528 -0.02619381 0.009418666 -0.02914604 0.02572174 -0.014693342 0.020202223 -0.0459111 -0.046035744 0.006622471 -0.0008776784 0.027417649 0.040051673 0.013962116 -0.049284935 -0.030655479 0.04896042 -0.031848215 0.0039881095 0.015867088 0.04239713 0.01284175 0.023961935 -0.014798749 -0.037602652 0.041249145 -0.026165593 0.008270301 -0.012665033 -0.016411327 -0.0044375174 0.011591066 -0.03785956 0.042208146 -0.025905585 -0.006012082 -0.029268598 0.01176288 -0.036302567 -0.008058716 0.010746468 0.036673848 0.037861947 -0.0010846257 -0.0079293735 -0.049853493 -0.01595683 -0.0043392777 0.043744925 0.013789918 -0.011353195 0.027745653 0.04017223 -0.0081970915 0.027525436 0.011758376 -0.042254675 0.010277212 0.049743537 -0.0088051185 -0.042735673 -0.022046579 0.010564696 0.044874493 -0.006522406 -0.03660952 -0.025220871 0.04788888 -0.006188132 -0.026423682 0.0042201392 -0.009309601 0.0356864
people 0.028562333 0.019617353 -0.034906875 -0.00364108 0.02711917 -0.031619478 -0.0353268 -0.04528251 0.03252459 -0.01008644 -0.017898642 0.049378816 -0.03059088 -0.017054103 0.03999308 0.04468492 -0.0012237057 0.030462813 0.02968384 0.009575643 0.019721653 -0.018140148 -0.023940314 -0.0080237985 -0.04249494 0.027479742 0.018241074 0.04549135 -0.004027106 0.048115138 0.021572206 0.042449955 -0.018525101 0.028614473 0.0020075068 -0.009259928 0.011531688 0.034645464 0.002962578 0.031627726 -0.04212717 -0.045164824 0.006663643 0.029376302 -0.009061001 0.044320527 0.027718429 0.014015261 0.014142882 -0.040497232 0.00010905415 0.03052492 0.04456469 -0.03989154 0.021948341 -0.025588727 -0.02721486 0.038097132 -0.045268334 -0.048476804 -0.013764869 0.004113566 0.00571654 0.021240998 0.049337577 0.03546499 0.04262011 0.013152752 0.035939228 0.0069568157 -0.030498207 0.031931307 0.03770772 0.039436724 -0.031903613 0.0013330355 0.043547023 -0.023125088 0.04587474 -0.009188868 0.007850815 -0.03882698 0.02466831 0.041612294 -0.006559562 -0.048081946 0.009113539 0.011299133 -0.020724703 0.018249203 -0.04469948 0.048875358 -0.03154949 0.014050748 -0.014230549 -0.0036787987 0.0058131106 -0.034176193 -0.03846065 0.013969947
who -0.04102242 -0.04374211 0.018318478 -0.023712886 0.0018387437 -0.020298302 -0.045995843 -0.014693677 0.035287824 -0.038145494 -0.01616894 -0.00485152 0.020357732 0.012364984 0.02638549 0.048034657 0.008118223 -0.002690386 0.045769382 0.029142905 -0.025022877 0.032378104 -0.014056731 -0.015157413 0.03595152 -0.012567569 -0.048134614 -0.022752238 0.006207932 -0.038926445 0.009020984 0.0423857 -0.024121333 0.030662898 -0.02831738 0.04715326 0.034179952 0.027275395 0.012120962 0.03082076 0.01176114 0.017822351 -0.02294352 -0.006919753 -0.0066489354 -0.025220288 0.0035295114 0.0036115423 0.010158144 0.0013869517 0.031230379 0.007401932 0.03176919 -0.024204278 0.005139269 0.034594607 0.048027765 0.039359596 0.023361888 0.044028174 0.044091616 0.04215974 -0.0006989129 0.0026230328 0.0452755 0.029701915 -0.043514002 -0.026078666 -0.040111482 0.036864344 5.6408346e-05 -0.03562125 0.038733114 -0.0034788363 0.015406717 0.007321894 0.0054886453 0.010867238 0.042364452 0.005432546 -0.046981692 0.029609468 -0.028494274 0.024250057 0.0071780197 -0.04855279 0.016436461 0.040841248 -0.013705004 0.03971534 0.0202909 -0.040879644 0.0033887513 0.0338864 -0.034958445 0.0073826797 -0.0097207315 -0.030454982 -0.0009118095 -0.035079956
shed -0.026798392 0.041408565 -0.03348718 0.032048587 -0.0024651885 -0.0037656203 -0.048819758 0.028093938 0.03678972 -0.036178328 -0.013846695 -0.049756087 0.02168012 -0.03840568 -0.028125321 -0.017705154 -0.023037052 -0.008919917 -0.046236612 0.003440164 -0.047729112 0.045250643 -0.03291464 -0.0049989335 0.010793112 0.01717433 -0.022907495 0.018134687 0.033300284 -0.040185772 -0.042958617 0.006624125 -0.0005583167 0.016241137 -0.022956062 0.014374498 0.038801443 -0.003690146 -0.015834175 -0.0030553564 0.013699915 0.0432134 -0.046208 0.0085524805 0.001840163 0.028113093 -0.015055429 0.024876345 0.04121015 -0.039201926 0.025088754 0.030564878 0.016355995 -0.028786898 0.005316414 -0.0047542676 -0.04917977 -0.0380043 -0.0016447417 0.034949232 -0.030135501 0.049181078 0.02131157 0.019706938 0.03344958 -0.0081301555 -0.012342177 -0.03186162 -0.031027365 -0.0022970065 -0.004991196 -0.020065237 0.01745205 0.046356667 -0.011556316 -0.04343591 0.026454452 -0.007861424 0.005954813 -0.042945802 -0.044072628 -0.017718267 0.033758733 -0.023093557 0.04089197 -0.027002288 0.03217237 0.022215117 0.027429167 0.021038856 -0.026946856 -0.03909104 0.0054635517 0.0074798465 0.03585447 -0.014317226 0.025796536 -0.016614102 0.045721266 0.043540087
24 -0.00081988424 0.018797103 -0.007108461 0.010231245 -0.032269575 0.0035879612 -0.034031287 -0.0017228946 -0.007813297 0.006343819 0.0064133033 0.00045179203 0.0031217448 -0.020343138 -0.020191504 0.043385293 0.04527917 -0.02804159 0.033219624 0.022630643 -0.018101145 -0.044234134 0.01656026 0.03377272 -0.009094071 -0.02977022 -0.020748151 0.04345013 -0.0016297102 0.004155528 0.02256054 -0.03134586 0.013983611 -0.0053748265 0.025859062 0.01944026 -0.01577263 -0.046632327 0.02854124 0.016674329 0.024737481 -0.013805676 0.011729706 0.007946085 0.04354397 0.035933662 -0.017217852 -0.04472312 -0.020137966 -0.0048482902 0.045494054 0.026978996 -0.022713948 0.015423764 -0.035184003 -0.041699577 -0.027163541 0.02747244 0.04768232 0.02513266 0.03160267 -0.030097295 -0.022440458 0.035932373 0.021032166 -0.015089918 0.0109661445 -0.03821508 -0.03678737 0.02792013 -0.010803975 -0.0041122325 0.0075065605 -0.0018325448 -0.04749267 -0.03582375 -0.023557855 -0.04359722 0.024401512 0.008269928 0.04373342 -0.04143963 0.047898363 -0.0031912103 -0.019189764 0.040613774 -0.02856381 0.016155902 -0.020648886 0.044457782 0.038377132 0.00264759 0.019691039 -0.03254886 0.024990287 -0.037199996 -0.025938405 -0.0061094984 0.018863928 0.04810876
48 -0.017477024 -0.0045622103 0.011744738 -0.010404635 0.012188949 -0.047796585 -0.049730003 -0.040805113 -0.020811379 -0.00319748 -0.0062728897 -0.04576981 0.04105555 0.031795744 0.020910945 0.0342204 0.008625437 -0.043226887 -0.031555116 0.018855575 -0.023995519 0.028694782 -0.0014538877 -0.027069414 0.03772122 -0.011488367 0.009202611 0.026391339 0.049573127 -0.017528355 -0.013896763 0.025988769 -0.00026390702 0.04675654 -0.012950551 0.03718319 0.018415246 0.015353348 -0.035765685 -0.009227969 0.040259365 0.042499665 0.0062474385 0.012666654 0.0030684583 0.038275566 0.035761442 -0.023909247 -0.02164172 -0.009675585 0.03959168 0.0005710237 0.03427613 -0.04414432 0.043137047 -0.04037713 -0.008271374 0.04959509 0.036493722 -0.020955313 0.033897284 0.048411015 0.04593985 -0.031623818 0.03323425 -0.040321898 -0.020636952 0.0241904 0.02199633 -0.010147154 0.007202983 -0.026926208 -0.024043191 -0.042696666 -0.026514828 -0.005513262 -0.042843845 0.044929218 0.038811896 -0.0006660819 0.019278679 0.0131891705 -0.04754863 0.012074817 -0.031870414 0.02537525 -0.043864228 -0.041007556 -0.027719617 -0.02843498 0.030720059 0.03605796 -0.011089481 0.02444971 0.039990056 0.0063955784 -0.032186843 0.0032185093 0.018563043 0.029491398
hours -0.028881002 0.039766256 -0.048623394 -0.038443636 -0.03852719 0.030544568 0.007139109 0.0051403865 0.013233338 -0.04421555 -0.044213116 0.021149565 0.018974964 -0.00059897825 0.00074756145 -0.001043547 -0.042577375 0.035172615 -0.022912228 0.048409227 0.0398514 -0.030491233 -0.038371276 0.044657793 0.026461866 -0.024256183 0.03471564 -0.01855775 0.047800254 0.041049395 -0.0084108 0.03214406 0.010482442 -0.015433133 -0.0036157258 -0.019400418 -0.0074775442 -0.03739065 0.00583037 0.041437898 -0.035038173 0.03274994 -0.032723367 -0.019724762 0.025129389 -0.021225525 0.0028793812 -0.044860303 0.044029746 -0.049208928 0.0028266795 -0.04982699 -0.022801245 0.006981991 -0.018512644 -0.013374113 0.0042038187 0.00102669 0.027513731 -0.030359661 -0.028924573 0.012415718 0.023757149 0.0027924068 0.00832846 -0.048262525 0.0077426434 0.0024011135 0.00789573 -0.023731042 0.0041131005 -0.031627703 -0.038069595 -0.000724446 0.03113133 -0.034157395 -0.022735322 -0.027001834 0.025536012 -0.02164867 -0.032492913 0.008788038 -0.039878022 -0.005873967 -0.006275773 4.9583614e-06 -0.049523007 -0.021495223 -0.030371154 -0.041499555 0.02277464 0.015378248 -0.03632102 -0.035104834 -0.01067654 -0.013288867 -0.034484077 0.024114657 -0.002928637 -0.034335807
prior 0.014524352 -0.023925364 0.025223378 0.029505286 0.035751972 -0.037074007 -0.044292547 0.008202206 -0.010517739 0.013975587 0.04010563 -0.013899267 0.010918666 -0.015084028 0.018773165 0.018525306 -0.04631945 0.039668728 0.017145287 0.032097604 0.04431368 -0.008215584 -0.03653481 -0.03913623 0.025790777 0.008207403 -0.0028292052 -0.033228554 0.036449555 -0.015818227 -0.039046846 0.030025367 0.0008017309 -0.024026453 -0.031529523 0.021586489 -0.0101880655 -0.036621727 0.0141961835 -0.025566697 -0.0071974285 -0.021056294 0.035640445 -0.045073833 0.037812304 0.03832474 -0.03550317 -0.029763674 -0.012458503 -0.029266715 0.04274598 -0.005882431 -0.03151878 0.046885584 -0.03884654 -0.0052307844 0.0180895 -0.0018960722 0.026570704 0.030903544 0.00957495 -0.026933217 0.020367634 -0.043430246 -0.022961104 0.03151608 0.011454843 0.018447015 -0.044773903 -0.014882028 -0.04296204 0.04379754 0.019822512 0.029064763 -0.016780473 -0.0358814 0.019005049 -0.029434467 -0.038726497 0.03443687 -0.0029758327 0.024461638 0.019299183 -0.0148281455 0.027978513 -0.0049492493 0.03519989 -0.018621791 -0.021178473 0.020578314 0.04930676 0.033992458 -0.02932365 0.04580796 -0.004685439 -0.03298396 0.049666036 0.016125847 0.022369925 -0.049194884
symptom 0.027192954 0.008126628 0.013405453 0.0320961 0.0028053038 -0.038598098 0.039114367 0.012118768 -0.0347021 0.0073618665 -0.016358245 0.042967703 -0.02499019 -0.04507799 -0.030913282 0.03075793 -0.022124326 0.04721332 0.026604418 -0.011231232 -0.0008123033 0.043546986 -0.03575766 -0.045062542 0.018072795 -0.0015104637 -0.049139526 0.036526088 -0.0036777034 0.008773901 -0.015548728 0.021800268 0.017036032 -0.006140817 -0.03259772 -0.047496535 -0.014207266 0.005563628 -0.008219887 -0.0046186075 -0.034631155 0.019680168 -0.017399203 9.126589e-05 -0.0049334057 0.04763769 0.045075063 -0.02297715 0.04349721 -0.010329567 -0.028992487 -0.02485714 -0.029246354 0.021583859 0.0011755824 0.00027223676 -0.00024285167 0.04142845 -0.03510177 -0.033815302 -0.0056396946 -0.02311349 -0.030352354 0.019844715 0.035492446 0.019588504 0.0058423504 0.018960092 -0.01632955 -0.042862035 0.03997897 -0.028692259 -0.040862955 -0.019991517 0.009958755 0.00997287 0.012106311 -0.03884839 -0.04127246 -0.049272027 -0.036392115 -0.020367075 0.018832695 0.024223898 -0.012161028 -0.02877958 0.04230548 0.03328797 -0.019662643 -0.005664658 0.047488917 -0.005494319 -0.04390285 -0.047120966 -0.01263193 0.008928932 -0.02657709 0.03883857 0.032149304 0.0157958
onset -0.03588449 0.024490524 -0.022208048 -0.038197316 0.014084969 0.027990531 -0.03442371 0.019516174 -0.041761078 0.038378123 0.0064868703 -0.040414024 -0.0018064491 -0.03291147 0.043484543 -0.04451585 -0.031566203 0.03860638 -0.006787814 -0.012480818 -0.020181466 0.02450515 0.021064725 0.042774666 -0.01445023 -0.029945387 0.0016036145 0.048144046 -0.028843546 0.0037795529 -0.03157859 -0.0012508854 0.029921066 -0.021194065 -0.04919231 -0.020374393 0.045635078 -0.0042304993 -0.041151404 0.001320947 0.0031756386 -0.046957374 0.0021764264 0.031146992 0.03176714 0.008407332 0.033387627 -0.04146298 -0.0003924258 0.042762805 -0.012667846 0.038504127 0.03379358 0.029440474 0.0162681 -0.032768358 -0.010159265 -0.04832926 0.038684297 0.015963223 0.028024945 -0.045404937 0.022692468 0.013911013 0.049578335 0.017295789 0.009253215 -0.0010903105 -0.0461388 0.0046999343 -0.04196775 0.025621008 0.019315291 -0.030092811 0.037238028 0.028102327 -0.018920625 -0.028934991 0.0051750317 0.010681532 0.02343763 -0.030072534 0.034350205 0.035395052 -0.011943173 0.041196276 0.03154457 0.012978088 -0.00060797855 0.021674816 -0.005501151 0.0012575164 0.02475259 -0.025082363 0.011053454 0.03961322 0.03932968 0.014208604 -0.0048347935 0.033972215
at 0.035008382 0.007541895 -0.04744778 -0.032654263 0.047780465 -0.0014411211 0.036346268 -0.022748386 0.03291749 -0.004490018 0.015959192 0.04947147 0.018431846 -0.035483826 -0.018139053 0.0018383749 -0.041449584 -0.03324809 0.02066965 -0.03399284 0.025408115 -0.014223836 -0.02696079 0.0156032555 0.042601634 -0.020670999 -0.022477806 0.014095273 -0.01848837 -0.016013276 0.027961064 -0.039411686 -0.0036056265 -0.016859185 -0.030295206 -0.01716683 -0.000103734434 0.0303188 -0.015504729 0.044604573 -0.025689865 0.017111268 0.04366119 0.045752253 0.035026256 0.04298136 0.024552751 -0.04778043 -0.03848977 -0.047371577 -0.04159217 0.013205592 -0.0021787882 0.029248286 -0.039706983 0.03164513 0.012651052 0.017610911 0.04603448 -0.003421843 -0.03500129 -0.035189725 0.020137798 0.03908849 -0.029218614 0.00030642748 -0.044925522 0.0079656355 0.007274758 -0.034714926 0.037413273 -0.045654297 0.01201427 -0.012896277 -0.042523026 0.03714669 0.047636975 -0.00811398 0.034284245 -0.04169829 -0.048170783 -0.020738054 0.03915218 -0.016820334 0.022712324 -0.00097365305 0.011332549 0.008284725 -0.030968 0.0072331317 0.017113332 -0.034881163 -0.004158985 -0.029414082 -0.022704208 0.023510758 -0.0016957149 -0.00029356405 0.023525942 0.024637852
present -0.024940873 0.007812917 -0.03696816 0.00930462 0.04196484 -0.02586086 0.019070651 -0.017162073 0.04223894 0.013733778 -0.0134501085 -0.012082733 0.018018153 -0.023033917 -0.039995383 0.022152234 0.022846114 0.03529196 0.029063735 0.041536365 0.016793896 -0.03252715 -0.016162228 -0.008395337 0.04631808 -0.01590855 -0.005068004 0.04517932 -0.010381542 -0.041533757 0.018237997 0.010735691 0.019600455 0.04030815 -0.026576508 0.020285014 0.028556753 -0.03255286 -0.022606408 -0.015366733 -0.037562728 -0.021681536 -0.0081290975 -0.049140632 0.001437962 0.00096348673 -0.015823342 -0.042001367 0.016668689 -0.04736619 0.038084533 0.04646376 -0.019640421 0.04114518 -0.02720709 0.0346135 0.0012770891 -0.03550149 0.04392766 -0.04629456 -0.0064288005 0.041066494 -0.0026768073 0.012310576 -0.017333042 -0.03998704 0.048881922 -0.040430784 -0.041726697 0.008007873 -0.0001392737 -0.024209857 0.01686659 -0.0010890961 -0.034942914 -0.011594392 0.043454815 0.00031723827 0.046964873 0.0019595847 -0.034375858 -0.043308772 0.043930683 0.044737723 -0.030492915 -0.010213338 -0.019450152 0.037099753 0.04168191 0.015217137 -0.016607143 0.013371181 0.024337854 0.04243667 -0.015886247 -0.006838642 -0.020472074 0.03426874 0.018002722 0.02838913
does -0.04307407 -0.011847507 -0.049904812 -0.013800193 -0.01843543 0.005466629 -0.013296712 -0.042836335 0.02244332 0.010649789 -0.0028053746 -0.01573763 0.004764296 -0.0018745065 -0.04091096 0.010400545 0.030891385 0.017052721 -0.030212808 0.013613414 -0.0031619295 -0.018381752 0.038062844 -0.043221604 0.044583533 -0.019742966 -0.0058593266 0.012377918 -0.0060558543 0.03690103 0.012366615 -0.0111826435 -0.0073601604 0.028991487 -0.026486207 -0.018138729 -0.021676635 -0.031189967 0.03831509 0.04758029 -0.017844856 -0.012501478 -0.043009926 0.00022991747 0.019025292 0.014813494 -0.03645251 0.008645356 0.02952445 0.03577253 -0.036495734 -0.021837378 -0.02713567 -0.038597964 0.037943494 0.03416722 0.03900634 0.027698923 -0.023469543 -0.014334571 -0.0124184005 -0.047172464 -0.036742736 0.015201617 -0.015615523 0.020328473 -0.024959922 -0.0038449392 0.040652487 0.034545626 -0.025490547 0.043360714 -0.041490853 0.031872023 -0.032954205 -0.0015428774 0.00047067553 0.015065122 0.028580021 0.035407495 0.004832696 -0.048891723 0.014510047 -0.004909944 -0.04159514 0.017722022 -0.0071209446 -0.032985233 -0.0010642782 0.028920759 -0.0038868561 0.033062104 -0.03187573 -4.5586377e-05 0.006676983 -0.01420629 -0.027615583 0.0321506 0.011254799 -0.04993422
